0.001309
0.001915
0.001507
0.000406
0.001231
0.003181
0.004240
0.005202
0.005370
0.004927
0.004925
0.005009
0.003612
0.002229
0.002253
0.003147
0.003685
0.003433
0.003445
0.005372
0.006583
0.007087
0.005582
0.004876
0.006615
0.009120
0.009162
0.008247
0.008646
0.008258
0.008831
0.009051
0.008136
0.006447
0.006081
0.006676
0.007178
0.008546
0.010161
0.011760
0.011690
0.011707
0.011549
0.011219
0.010457
0.009529
0.008522
0.007613
0.007757
0.008075
0.007692
0.007401
0.007808
0.007080
0.008623
0.008235
0.010376
0.011886
0.013903
0.015727
0.016139
0.017591
0.017462
0.018815
0.019893
0.020960
0.023148
0.022180
0.020961
0.020711
0.017853
0.014500
0.013357
0.012748
0.013276
0.011971
0.011115
0.010267
0.009688
0.008680
0.008292
0.009997
0.010205
0.009888
0.008530
0.008317
0.008977
0.008672
0.006717
0.006348
0.006592
0.008052
0.010108
0.008225
0.008973
0.008234
0.007675
0.008342
0.009262
0.010348
0.009421
0.009721
0.009671
0.010578
0.010780
0.010806
0.012138
0.013804
0.012407
0.009631
0.007492
0.008073
0.009344
0.008601
0.008126
0.008962
0.009354
0.008698
0.008048
0.007753
0.009028
0.008897
0.011292
0.011661
0.010895
0.011268
0.013030
0.012686
0.012867
0.012698
0.012008
0.012196
0.012382
0.010912
0.011285
0.010174
0.010118
0.008845
0.008716
0.008501
0.009333
0.008938
0.008286
0.007814
0.009176
0.011656
0.013849
0.014454
0.014183
0.011476
0.009144
0.008577
0.009147
0.010234
0.010962
0.010028
0.010410
0.012268
0.015500
0.017133
0.019011
0.020175
0.022284
0.023762
0.024878
0.024154
0.023437
0.023598
0.023410
0.022178
0.021917
0.021570
0.022447
0.021050
0.021584
0.022024
0.021068
0.019076
0.018236
0.018100
0.018837
0.020089
0.022024
0.023506
0.024450
0.024601
0.024750
0.025769
0.024340
0.023273
0.022391
0.020822
0.021270
0.023107
0.027015
0.028708
0.029600
0.030310
0.029097
0.030159
0.032256
0.033461
0.034306
0.036013
0.036659
0.036079
0.034895
0.034943
0.034554
0.031122
0.030423
0.028600
0.028100
0.029869
0.029966
0.029714
0.029203
0.027914
0.025767
0.024948
0.024571
0.024286
0.023742
0.023900
0.025102
0.025681
0.025124
0.025965
0.027146
0.026312
0.027228
0.026481
0.025219
0.025798
0.026806
0.026498
0.026020
0.025023
0.024994
0.025749
0.026584
0.027236
0.027534
0.029831
0.029493
0.028723
0.028048
0.028338
0.028711
0.029865
0.029614
0.028146
0.025997
0.023521
0.023072
0.022801
0.022098
0.021750
0.020970
0.020895
0.022822
0.025428
0.025656
0.026405
0.026798
0.028754
0.027817
0.029502
0.031083
0.032300
0.032808
0.033398
0.034070
0.033341
0.031576
0.030089
0.029313
0.029416
0.030127
0.028306
0.027635
0.027058
0.025964
0.026884
0.026140
0.026710
0.026403
0.027841
0.029438
0.030410
0.030937
0.031024
0.031632
0.031624
0.031617
0.031261
0.031519
0.030816
0.030643
0.030297
0.030564
0.030480
0.030571
0.029790
0.028234
0.028261
0.028287
0.029096
0.028417
0.027920
0.027165
0.025984
0.024291
0.023486
0.022863
0.021898
0.022597
0.023115
0.024672
0.023254
0.022459
0.022630
0.022799
0.024360
0.025382
0.025959
0.027140
0.027004
0.024778
0.023533
0.024390
0.024628
0.025561
0.027704
0.026255
0.024734
0.023751
0.021210
0.019826
0.018978
0.018923
0.019390
0.021072
0.022737
0.022557
0.022552
0.022026
0.023159
0.023845
0.022958
0.023036
0.021896
0.021985
0.019984
0.018264
0.016997
0.014784
0.013116
0.012683
0.014257
0.014858
0.016236
0.017340
0.017997
0.018299
0.017728
0.015073
0.014359
0.014001
0.014866
0.014851
0.014314
0.013870
0.011862
0.011181
0.012683
0.015041
0.017549
0.019510
0.020929
0.022595
0.024593
0.026484
0.026528
0.026397
0.025919
0.025446
0.024717
0.024604
0.024144
0.023689
0.023760
0.024963
0.024500
0.024215
0.025065
0.026081
0.027260
0.026513
0.026992
0.026595
0.027421
0.026759
0.026017
0.025543
0.023855
0.021748
0.020272
0.020464
0.020394
0.019976
0.019040
0.019245
0.018664
0.019395
0.018290
0.018416
0.017234
0.015977
0.015777
0.015753
0.014075
0.012762
0.013291
0.013640
0.012070
0.012345
0.013226
0.012618
0.014018
0.015318
0.015821
0.016058
0.015596
0.016880
0.014930
0.014740
0.014466
0.015151
0.014176
0.012340
0.012263
0.014015
0.014357
0.016524
0.017625
0.018540
0.021449
0.020934
0.020162
0.020443
0.021505
0.020727
0.021003
0.021623
0.022499
0.023627
0.024570
0.024198
0.023829
0.024334
0.025618
0.025061
0.025206
0.026308
0.026179
0.026487
0.027314
0.027872
0.026858
0.024460
0.022347
0.020430
0.020185
0.018899
0.017538
0.017236
0.017023
0.014549
0.013406
0.013318
0.013145
0.012625
0.012371
0.012468
0.013087
0.014482
0.014559
0.014808
0.014707
0.015477
0.014499
0.013443
0.012659
0.012318
0.011632
0.010430
0.010286
0.009707
0.008873
0.008482
0.008879
0.007705
0.005498
0.004271
0.002533
0.000900
-0.000195
0.000550
0.000590
0.001675
0.002401
0.002075
0.001491
0.001348
0.002252
0.002275
0.004650
0.005868
0.007249
0.008268
0.007884
0.007851
0.007471
0.008139
0.010020
0.010401
0.009822
0.009073
0.009029
0.010466
0.011540
0.009643
0.009593
0.010153
0.009924
0.008391
0.007309
0.007108
0.006213
0.004020
0.002372
0.001263
0.001558
0.001501
0.001445
0.003044
0.004366
0.005239
0.005843
0.006440
0.007293
0.008485
0.008795
0.011017
0.011389
0.011148
0.010212
0.010853
0.010704
0.011863
0.013706
0.014922
0.015777
0.015492
0.015907
0.017188
0.015670
0.014863
0.017025
0.017250
0.015645
0.013968
0.014572
0.013950
0.012378
0.010820
0.012935
0.013375
0.014943
0.015972
0.016991
0.017042
0.018660
0.019391
0.019854
0.021705
0.023973
0.024477
0.025063
0.024946
0.025267
0.026716
0.027105
0.028536
0.028646
0.029452
0.030511
0.031560
0.030596
0.028422
0.027924
0.027954
0.027286
0.026190
0.026150
0.025239
0.025557
0.025871
0.026966
0.028398
0.028770
0.029053
0.030638
0.032208
0.033675
0.034953
0.034999
0.033304
0.032584
0.031348
0.029950
0.028044
0.023458
0.021878
0.020487
0.020417
0.020086
0.020193
0.021257
0.023094
0.023868
0.024983
0.027392
0.029604
0.029529
0.027802
0.026352
0.023350
0.023077
0.024635
0.024348
0.024762
0.026216
0.027568
0.025860
0.026780
0.026821
0.026774
0.026031
0.025470
0.025089
0.024711
0.025208
0.025700
0.026970
0.027271
0.027307
0.027255
0.027030
0.026024
0.027030
0.027416
0.027277
0.027835
0.028736
0.028845
0.028255
0.028978
0.027691
0.028158
0.029752
0.029503
0.030213
0.030655
0.031615
0.033000
0.032979
0.032523
0.032855
0.032139
0.032039
0.031244
0.030718
0.030111
0.030380
0.029862
0.031004
0.032396
0.031597
0.029762
0.029251
0.029354
0.027802
0.026614
0.026482
0.026700
0.026307
0.026004
0.026749
0.026616
0.026223
0.028446
0.028644
0.029450
0.029639
0.029912
0.028877
0.029332
0.029087
0.027363
0.026441
0.025788
0.025229
0.024154
0.022393
0.021606
0.020654
0.021365
0.020763
0.021648
0.021914
0.021568
0.021399
0.020971
0.021766
0.020464
0.018914
0.017379
0.017600
0.018342
0.018641
0.018327
0.020281
0.021083
0.021528
0.019706
0.019295
0.018975
0.020661
0.022068
0.023027
0.024498
0.024910
0.025840
0.026238
0.023673
0.021394
0.020182
0.019679
0.019616
0.019380
0.018450
0.017093
0.017492
0.016319
0.015942
0.016700
0.016232
0.014549
0.014276
0.013832
0.013392
0.011651
0.010972
0.010473
0.011112
0.012614
0.011055
0.009163
0.009205
0.006634
0.004786
0.004785
0.004348
0.006005
0.008081
0.009962
0.011041
0.010542
0.010831
0.011988
0.011393
0.010542
0.010570
0.009466
0.008373
0.008336
0.007168
0.006881
0.005379
0.004675
0.005197
0.007629
0.010385
0.009109
0.008717
0.007457
0.005165
0.002722
0.002741
0.001019
0.000968
0.002746
0.004941
0.004677
0.005025
0.007459
0.009433
0.009821
0.009682
0.010329
0.011230
0.010816
0.008490
0.006798
0.005296
0.004680
0.005463
0.006239
0.006484
0.006379
0.007493
0.007813
0.006562
0.006456
0.007221
0.008763
0.009854
0.010846
0.011829
0.011932
0.013688
0.014468
0.014370
0.014709
0.015915
0.016586
0.018121
0.019293
0.020453
0.023604
0.025940
0.026947
0.026899
0.025372
0.025427
0.024523
0.022932
0.022054
0.022577
0.023617
0.022296
0.021685
0.021342
0.022046
0.022656
0.022564
0.021341
0.021088
0.021621
0.020842
0.020507
0.020000
0.019848
0.019522
0.017197
0.014548
0.013839
0.015228
0.015819
0.014141
0.012305
0.010052
0.007734
0.007878
0.007932
0.007725
0.008043
0.010012
0.012483
0.012144
0.011111
0.011308
0.009413
0.009453
0.010885
0.011955
0.014059
0.014226
0.013782
0.013778
0.015342
0.016889
0.017202
0.016816
0.016434
0.017013
0.017238
0.017635
0.018202
0.018764
0.020103
0.020646
0.020225
0.019983
0.020352
0.020631
0.019776
0.017884
0.017839
0.018578
0.018440
0.019086
0.018332
0.018109
0.018672
0.018009
0.019792
0.021818
0.021037
0.018349
0.016210
0.015747
0.016420
0.015519
0.014802
0.014004
0.013127
0.011214
0.010191
0.011441
0.013289
0.015467
0.015533
0.015947
0.016270
0.015196
0.014046
0.011863
0.011878
0.013025
0.013638
0.012765
0.011639
0.009480
0.008822
0.009390
0.009778
0.010162
0.009497
0.007621
0.006285
0.006007
0.007213
0.007535
0.006636
0.006964
0.006331
0.007011
0.006291
0.005665
0.006438
0.006943
0.010054
0.011655
0.012020
0.012295
0.013612
0.014393
0.013599
0.012988
0.012034
0.011351
0.011545
0.011738
0.011145
0.010035
0.008327
0.009770
0.010329
0.011752
0.012552
0.014476
0.015423
0.013835
0.013657
0.011826
0.011667
0.011162
0.010052
0.010695
0.010895
0.008744
0.006962
0.007200
0.007522
0.007493
0.009032
0.009337
0.009029
0.010291
0.011105
0.011650
0.011319
0.010208
0.008847
0.009066
0.007716
0.006031
0.004102
0.002366
0.000908
0.000771
0.002290
0.002748
0.001810
0.001054
0.001090
0.000777
0.002817
0.005099
0.005791
0.006389
0.006981
0.006696
0.006676
0.008571
0.009403
0.009616
0.010002
0.009252
0.011731
0.013228
0.013490
0.010965
0.008812
0.007987
0.008302
0.011574
0.011592
0.012219
0.011273
0.010424
0.010279
0.012399
0.013367
0.013628
0.013103
0.011974
0.010421
0.009232
0.009012
0.010448
0.011697
0.013193
0.012499
0.011028
0.011399
0.011680
0.011088
0.010153
0.010359
0.012043
0.013798
0.014577
0.013347
0.011345
0.010669
0.011566
0.013500
0.015240
0.014264
0.013733
0.012336
0.012956
0.011567
0.012195
0.013600
0.013859
0.015073
0.015666
0.015208
0.013535
0.013621
0.013532
0.015707
0.016728
0.016521
0.013617
0.012221
0.012407
0.012417
0.011817
0.011658
0.010718
0.008132
0.007314
0.007113
0.007001
0.009242
0.009196
0.009151
0.008409
0.006979
0.005040
0.003033
0.001569
0.001338
-0.000370
-0.001017
-0.000264
-0.000477
-0.001384
-0.001237
-0.000743
0.000094
0.003622
0.005982
0.006927
0.006207
0.005669
0.004614
0.002960
0.002280
0.001259
0.002424
0.003491
0.002806
0.002563
0.001626
0.000176
-0.001347
-0.001810
-0.003661
-0.002621
-0.002200
-0.001000
0.000187
0.000928
0.002793
0.003160
0.001172
0.001033
0.000633
0.002240
0.004005
0.004882
0.006969
0.006772
0.007360
0.006114
0.006186
0.005996
0.006767
0.008225
0.009583
0.009882
0.010352
0.011166
0.011623
0.010944
0.011752
0.011158
0.011790
0.012067
0.011471
0.009923
0.007781
0.006966
0.006768
0.006573
0.006902
0.007141
0.007203
0.007874
0.008625
0.008672
0.010025
0.011190
0.011735
0.012448
0.014546
0.015928
0.015641
0.016141
0.016114
0.015738
0.016324
0.016905
0.016695
0.015792
0.015333
0.015313
0.014337
0.013631
0.013367
0.012235
0.010244
0.007141
0.003721
0.000944
0.001851
0.001444
0.002259
0.002805
0.000908
-0.000970
-0.001176
-0.002163
-0.004011
-0.004273
-0.005142
-0.004348
-0.004346
-0.004344
-0.002861
-0.001481
-0.000549
-0.000498
-0.001318
-0.001258
-0.003028
-0.003039
-0.003572
-0.005406
-0.006002
-0.005722
-0.004139
-0.003617
-0.004318
-0.005970
-0.004472
-0.003685
-0.002470
-0.001181
-0.001036
-0.000718
-0.000578
-0.001309
-0.000641
-0.000937
-0.002449
-0.003162
-0.004216
-0.003780
-0.004741
-0.006041
-0.007414
-0.007381
-0.006652
-0.005234
-0.005484
-0.006515
-0.007014
-0.007594
-0.009214
-0.010556
-0.011711
-0.011723
-0.012953
-0.015216
-0.015715
-0.016122
-0.016525
-0.015530
-0.015504
-0.015478
-0.015452
-0.016297
-0.016698
-0.017269
-0.016006
-0.014582
-0.012563
-0.010998
-0.011452
-0.011031
-0.011746
-0.011931
-0.013508
-0.013414
-0.013757
-0.014358
-0.014343
-0.012674
-0.009803
-0.008266
-0.009444
-0.009303
-0.008729
-0.008422
-0.008379
-0.008076
-0.008036
-0.008781
-0.010128
-0.009545
-0.007663
-0.005886
-0.006826
-0.006451
-0.006341
-0.008147
-0.010109
-0.012139
-0.012408
-0.013283
-0.015107
-0.016391
-0.014876
-0.015813
-0.016306
-0.015489
-0.014592
-0.013008
-0.011613
-0.011974
-0.012070
-0.010597
-0.008879
-0.008309
-0.007048
-0.006236
-0.006215
-0.005497
-0.004787
-0.005912
-0.006243
-0.006396
-0.006460
-0.006785
-0.005626
-0.004218
-0.002563
-0.001185
-0.001302
-0.001329
0.001777
0.001980
0.001397
0.001864
0.001457
0.000531
-0.001344
-0.001197
0.000602
0.000468
0.000335
0.002207
0.004146
0.003367
0.003293
0.005483
0.007477
0.005620
0.005088
0.003952
0.001608
0.000332
-0.001279
-0.002439
-0.001672
-0.001000
-0.001292
0.000595
0.000635
0.000849
0.001844
0.000392
-0.002352
-0.003675
-0.003854
-0.004031
-0.004641
-0.004113
-0.004636
-0.004718
-0.003928
-0.002972
-0.002200
-0.001174
-0.000420
0.000066
0.000982
0.001192
0.000878
0.000480
0.000086
0.000219
-0.000695
-0.000816
0.001153
0.001884
0.001302
0.000465
0.000071
0.000639
0.000679
0.002198
0.002832
0.003111
0.002517
0.002450
0.002124
0.003194
0.003034
0.001918
-0.000406
-0.002097
-0.001072
0.000987
0.000153
-0.000499
-0.001231
0.001265
0.003040
0.003926
0.004107
0.004635
0.004809
0.003327
0.002644
0.001793
0.000863
0.000204
-0.000361
-0.000224
-0.000698
-0.002386
-0.003535
-0.003889
-0.002847
-0.002946
-0.002784
-0.001056
0.000568
0.001044
-0.000139
-0.001398
-0.001512
-0.000754
-0.000352
-0.000041
0.001224
0.002564
0.002759
0.003126
0.003489
0.002891
0.002299
0.004064
0.005027
0.006242
0.006052
0.005080
0.004815
0.003942
0.004210
0.002648
0.001100
0.000526
0.000132
0.001570
0.003428
0.002309
0.002767
0.004004
0.006449
0.008955
0.010741
0.010244
0.009753
0.010399
0.010777
0.012370
0.012380
0.012390
0.010746
0.010598
0.013586
0.015151
0.015133
0.014158
0.014150
0.013969
0.012048
0.009884
0.007655
0.007103
0.006034
0.005323
0.005229
0.005398
0.006696
0.007633
0.008996
0.009301
0.008907
0.008342
0.007347
0.005318
0.004092
0.002356
-0.000146
0.000076
0.000905
0.002944
0.003222
0.006110
0.008185
0.008498
0.007415
0.005210
0.004595
0.004421
0.003205
0.001477
-0.000232
-0.001838
-0.003515
-0.006481
-0.008634
-0.009634
-0.009666
-0.009263
-0.008776
-0.008382
-0.008426
-0.007774
-0.006780
-0.006927
-0.007683
-0.007909
-0.009177
-0.009301
-0.008901
-0.009985
-0.009404
-0.007262
-0.005403
-0.002778
-0.001485
0.000578
0.001489
0.000650
-0.000442
-0.001175
-0.000943
-0.000975
-0.000832
-0.002258
-0.001057
0.000131
0.000785
0.000562
0.000864
0.000553
-0.000277
-0.000489
-0.001222
-0.002382
-0.000223
0.000174
-0.000130
-0.002172
-0.003062
-0.002289
-0.003091
-0.002840
-0.001199
-0.000270
-0.000221
0.000001
0.000396
0.000786
0.000563
-0.000789
-0.002651
-0.003971
-0.004669
-0.006405
-0.007949
-0.009478
-0.009773
-0.009108
-0.009493
-0.007089
-0.003490
-0.001145
-0.001436
-0.003030
-0.003302
-0.003484
-0.003055
-0.003152
-0.004120
-0.005774
-0.007150
-0.007904
-0.008040
-0.007130
-0.007013
-0.005069
-0.004450
-0.002967
-0.002107
-0.002650
-0.005886
-0.006565
-0.007411
-0.008336
-0.009078
-0.011031
-0.011397
-0.012805
-0.014286
-0.016013
-0.014588
-0.014310
-0.013947
-0.014198
-0.013836
-0.013653
-0.012948
-0.012860
-0.010422
-0.008531
-0.008226
-0.009665
-0.011961
-0.013363
-0.015186
-0.017427
-0.018600
-0.020459
-0.022734
-0.022549
-0.022975
-0.022961
-0.022687
-0.022154
-0.021016
-0.020152
-0.019992
-0.019138
-0.020991
-0.022129
-0.022211
-0.022118
-0.022548
-0.022190
-0.023316
-0.024344
-0.024752
-0.024634
-0.024517
-0.024401
-0.023764
-0.022089
-0.021997
-0.020687
-0.019042
-0.018632
-0.017182
-0.016094
-0.014669
-0.017350
-0.018872
-0.019161
-0.019795
-0.019291
-0.020794
-0.019757
-0.020037
-0.019704
-0.017634
-0.014539
-0.014174
-0.013378
-0.013198
-0.014066
-0.012574
-0.011880
-0.010584
-0.011564
-0.010620
-0.010294
-0.011016
-0.010860
-0.011316
-0.012637
-0.011072
-0.009871
-0.008333
-0.008030
-0.009210
-0.010552
-0.010488
-0.009206
-0.009939
-0.011187
-0.011030
-0.009481
-0.008121
-0.009213
-0.009337
-0.008327
-0.007850
-0.008857
-0.008549
-0.009114
-0.008368
-0.007716
-0.005939
-0.003657
-0.004271
-0.003573
-0.003230
-0.001759
-0.000128
0.001138
0.003088
0.003713
0.003026
0.002694
0.002452
0.001777
0.002589
0.001477
0.000900
-0.001675
-0.003267
-0.004059
-0.003101
-0.000935
-0.000009
0.002649
0.004672
0.004062
0.005635
0.004754
0.004666
0.004579
0.003447
0.002066
0.001918
0.001858
0.000840
0.001052
0.002133
0.001200
0.000712
0.000489
0.000618
0.001790
0.003124
0.002094
-0.000406
-0.001487
-0.002819
-0.003964
-0.002137
-0.001460
-0.000877
-0.001519
0.001503
0.002056
0.002169
0.001149
0.000400
0.000268
-0.000734
-0.002247
-0.002005
-0.002113
-0.001175
0.000973
0.001705
0.002954
0.003319
0.003854
0.004558
0.006997
0.008715
0.009371
0.010281
0.010225
0.010169
0.011072
0.011878
0.011981
0.011559
0.013580
0.016016
0.017121
0.016736
0.016267
0.016412
0.016731
0.018352
0.016822
0.017571
0.019968
0.021904
0.022081
0.022517
0.021642
0.020864
0.020354
0.019762
0.019699
0.021551
0.022863
0.023378
0.024062
0.026481
0.028440
0.029074
0.028656
0.027460
0.028277
0.028651
0.030154
0.029290
0.028261
0.027939
0.027446
0.026523
0.027437
0.027645
0.027765
0.027186
0.025743
0.023704
0.022644
0.020288
0.019697
0.018589
0.017754
0.016317
0.015940
0.015566
0.015893
0.015172
0.014544
0.014010
0.013656
0.014437
0.014165
0.015115
0.014053
0.013785
0.012737
0.013004
0.013705
0.013614
0.013873
0.014129
0.014644
0.014806
0.014705
0.016346
0.016926
0.017065
0.014329
0.012753
0.010756
0.009215
0.009605
0.008685
0.007426
0.005744
0.004862
0.003467
0.002608
0.002193
0.003697
0.004229
0.004059
0.001888
0.001480
0.001512
0.000759
-0.001031
-0.002019
-0.002563
-0.002665
-0.002157
-0.001654
-0.000808
-0.000667
0.001214
0.001771
0.002844
0.004168
0.006088
0.007553
0.008308
0.008794
0.009014
0.009318
0.010317
0.009302
0.008559
0.007040
0.006842
0.006385
0.006019
0.005222
0.004955
0.004864
0.004601
0.004950
0.005904
0.006588
0.006481
0.005854
0.005667
0.006093
0.004337
0.003817
0.004348
0.003045
0.003409
0.003682
0.006042
0.008553
0.010255
0.010722
0.010400
0.009298
0.008206
0.009216
0.009431
0.010341
0.010720
0.010050
0.010605
0.010981
0.011963
0.013457
0.015633
0.017352
0.016877
0.014840
0.013607
0.012560
0.012916
0.014053
0.015178
0.015247
0.015403
0.016166
0.017357
0.018362
0.019183
0.020257
0.021930
0.021845
0.021935
0.023243
0.024712
0.025557
0.025349
0.025753
0.026587
0.026108
0.027113
0.027760
0.029010
0.029377
0.028521
0.027761
0.028924
0.031468
0.034336
0.034998
0.034521
0.035269
0.034441
0.036060
0.036531
0.035866
0.035294
0.034466
0.032341
0.032152
0.032053
0.032128
0.031593
0.031934
0.031837
0.030173
0.029397
0.029411
0.027162
0.026503
0.026372
0.027462
0.027844
0.027004
0.025998
0.026569
0.026438
0.026917
0.030178
0.030882
0.029750
0.029587
0.029165
0.027179
0.024778
0.024404
0.026471
0.027559
0.027679
0.026841
0.026097
0.025797
0.025673
0.024680
0.024481
0.024980
0.025909
0.025697
0.026532
0.026489
0.026097
0.025361
0.024806
0.026347
0.025696
0.025399
0.024235
0.023691
0.023154
0.022969
0.022526
0.021564
0.020351
0.020978
0.020554
0.021441
0.022144
0.022753
0.023095
0.023957
0.024809
0.025566
0.024139
0.022639
0.022111
0.020370
0.020301
0.021276
0.019979
0.020610
0.021147
0.019329
0.019183
0.019212
0.020634
0.020823
0.022055
0.023275
0.023351
0.022468
0.021333
0.022299
0.022384
0.022382
0.020812
0.021957
0.023439
0.023861
0.024453
0.026258
0.028394
0.028941
0.027567
0.025859
0.026519
0.027084
0.027035
0.026290
0.025813
0.025602
0.026177
0.026659
0.028094
0.029080
0.029446
0.028677
0.029482
0.029061
0.028296
0.025535
0.023150
0.022183
0.021050
0.022019
0.021411
0.021418
0.022208
0.023688
0.024282
0.025392
0.025708
0.026282
0.026502
0.026720
0.028677
0.028350
0.027505
0.028148
0.027565
0.026206
0.024250
0.022052
0.025187
0.024373
0.026005
0.025879
0.024971
0.025117
0.026655
0.027742
0.029863
0.031353
0.029955
0.028223
0.026596
0.024462
0.021827
0.018347
0.014728
0.013757
0.012970
0.011320
0.010209
0.010240
0.009662
0.010221
0.010166
0.011417
0.013352
0.013962
0.013782
0.012820
0.012216
0.011357
0.010333
0.009318
0.009968
0.011917
0.013847
0.015584
0.016520
0.017011
0.017758
0.019108
0.019835
0.020902
0.019957
0.017627
0.016018
0.015557
0.015361
0.015689
0.015579
0.013381
0.013816
0.016250
0.018050
0.019048
0.020820
0.021442
0.021710
0.022237
0.024413
0.023171
0.022725
0.023068
0.022623
0.022618
0.022875
0.022345
0.020776
0.018525
0.018387
0.019121
0.019934
0.021436
0.022053
0.021792
0.022057
0.022058
0.021884
0.022235
0.022670
0.023796
0.022909
0.023249
0.022629
0.021666
0.021758
0.020456
0.020124
0.020579
0.017896
0.016545
0.014511
0.013890
0.015104
0.017176
0.021231
0.024287
0.025920
0.027101
0.029141
0.030290
0.029512
0.028481
0.025980
0.022808
0.021147
0.020286
0.020566
0.019449
0.018867
0.018116
0.015195
0.014655
0.015513
0.017843
0.020062
0.020257
0.020536
0.021597
0.022125
0.020035
0.017183
0.013924
0.013831
0.013043
0.012873
0.013052
0.012098
0.012197
0.011600
0.012749
0.012669
0.012937
0.013028
0.012597
0.011473
0.012537
0.012110
0.013341
0.014561
0.016029
0.016873
0.017535
0.017668
0.019018
0.019659
0.020989
0.020566
0.017795
0.018535
0.016916
0.016185
0.015896
0.014303
0.013250
0.012816
0.011254
0.011624
0.012599
0.012868
0.013047
0.012877
0.010531
0.009514
0.009205
0.008201
0.007382
0.007616
0.008022
0.009555
0.009942
0.013284
0.014504
0.015364
0.014909
0.013326
0.011934
0.011600
0.010225
0.009908
0.007940
0.007037
0.007535
0.008551
0.009644
0.010813
0.012319
0.012242
0.011992
0.011832
0.010193
0.008309
0.008099
0.009022
0.008456
0.007373
0.007694
0.008621
0.006144
0.005432
0.006034
0.006194
0.007136
0.009201
0.010810
0.012577
0.013891
0.015104
0.016219
0.015668
0.015036
0.012233
0.010242
0.009229
0.010141
0.010783
0.012289
0.013258
0.013781
0.015431
0.017675
0.019896
0.022356
0.023224
0.023823
0.022761
0.021013
0.021808
0.021115
0.020690
0.020182
0.018547
0.017277
0.017238
0.019463
0.020970
0.023680
0.026277
0.027020
0.029060
0.030210
0.030478
0.028915
0.028586
0.029306
0.030105
0.030548
0.028026
0.026923
0.023393
0.020159
0.018350
0.016995
0.015305
0.014154
0.014843
0.016221
0.016715
0.016682
0.017868
0.018955
0.017594
0.019381
0.021846
0.023067
0.024538
0.024427
0.023795
0.024562
0.024799
0.024163
0.023185
0.020911
0.019617
0.018423
0.018112
0.017281
0.016459
0.015209
0.014582
0.016137
0.015674
0.017654
0.019353
0.020251
0.020009
0.021510
0.019949
0.019361
0.018780
0.018552
0.017281
0.016111
0.016867
0.017529
0.018271
0.018049
0.019047
0.019774
0.022497
0.024147
0.025956
0.027137
0.027957
0.028335
0.030624
0.031323
0.030970
0.029141
0.028027
0.027794
0.028521
0.030982
0.034377
0.035387
0.035081
0.034343
0.034831
0.035749
0.037094
0.038686
0.038522
0.039665
0.039664
0.038880
0.038975
0.038198
0.036123
0.033720
0.032473
0.034285
0.035383
0.035774
0.037205
0.037665
0.039077
0.039953
0.038818
0.039349
0.040745
0.041082
0.041416
0.040701
0.040691
0.039461
0.038418
0.038343
0.036702
0.035773
0.037988
0.037657
0.038199
0.037952
0.036924
0.036428
0.034458
0.034161
0.034825
0.035308
0.036657
0.035294
0.032899
0.031050
0.031223
0.030610
0.030352
0.029922
0.029496
0.025853
0.023988
0.022402
0.022835
0.023002
0.021165
0.021349
0.023011
0.025962
0.028449
0.030911
0.032478
0.033507
0.034787
0.033007
0.030635
0.028112
0.028140
0.027558
0.026894
0.027457
0.029928
0.032202
0.032188
0.032611
0.033812
0.034741
0.034703
0.035274
0.034708
0.033538
0.033425
0.033225
0.032244
0.033014
0.033777
0.035054
0.037711
0.039733
0.039035
0.040086
0.041649
0.042064
0.042910
0.044271
0.043180
0.042187
0.039724
0.038330
0.037298
0.038192
0.040121
0.041335
0.041405
0.042084
0.042495
0.041422
0.040621
0.039827
0.037649
0.034708
0.033103
0.031775
0.029677
0.026381
0.024684
0.025442
0.025583
0.026855
0.027592
0.029366
0.030774
0.032342
0.032589
0.030918
0.029438
0.027972
0.025737
0.023176
0.021860
0.022124
0.020731
0.019875
0.021464
0.021297
0.022437
0.024175
0.025896
0.026555
0.027730
0.027413
0.026577
0.025749
0.022927
0.021178
0.019359
0.018429
0.017944
0.020162
0.021836
0.023058
0.024006
0.025642
0.028567
0.029200
0.029303
0.027491
0.027437
0.024860
0.023091
0.023169
0.022462
0.021327
0.018984
0.018928
0.020701
0.022022
0.022197
0.022283
0.022978
0.022099
0.023580
0.024088
0.023894
0.024312
0.022897
0.022019
0.020278
0.018817
0.020330
0.020609
0.022191
0.022800
0.023664
0.023649
0.024330
0.023438
0.024731
0.025315
0.025544
0.024727
0.023046
0.022602
0.021466
0.020776
0.021312
0.022539
0.023580
0.024697
0.026152
0.027156
0.026932
0.027407
0.027877
0.026601
0.025686
0.024693
0.023710
0.024042
0.025242
0.026778
0.029866
0.029528
0.030151
0.031377
0.029892
0.030337
0.030778
0.029560
0.030009
0.028886
0.028644
0.027361
0.027918
0.027512
0.026066
0.025243
0.026170
0.025346
0.025140
0.026764
0.029766
0.030473
0.031609
0.032560
0.031847
0.032098
0.031302
0.030863
0.031734
0.033815
0.034395
0.034099
0.033719
0.033343
0.031664
0.031656
0.031648
0.033382
0.034489
0.034366
0.032329
0.031357
0.031004
0.030307
0.029877
0.028320
0.027039
0.027513
0.027982
0.028968
0.031599
0.033246
0.034616
0.036320
0.036788
0.036468
0.036674
0.035571
0.036047
0.036692
0.037592
0.038135
0.038759
0.038942
0.037295
0.037754
0.040123
0.042643
0.044354
0.046832
0.047370
0.048773
0.050075
0.049884
0.050653
0.049237
0.047314
0.044712
0.045445
0.046607
0.047582
0.049941
0.049403
0.050089
0.051204
0.051960
0.052707
0.051968
0.051062
0.048510
0.048596
0.045024
0.042968
0.041890
0.041519
0.041240
0.041920
0.041723
0.041963
0.042811
0.042953
0.042920
0.043062
0.045465
0.045756
0.046565
0.044407
0.043489
0.042841
0.040197
0.037144
0.035254
0.036777
0.038025
0.037692
0.038843
0.038329
0.038690
0.039831
0.039829
0.038957
0.037919
0.037065
0.034392
0.033922
0.033456
0.030993
0.029860
0.028303
0.027545
0.027491
0.028657
0.029811
0.030779
0.030519
0.029739
0.029489
0.028545
0.026044
0.023916
0.021286
0.019988
0.019139
0.017689
0.018778
0.020291
0.020658
0.020760
0.020599
0.019918
0.019592
0.021359
0.022759
0.021970
0.021275
0.021109
0.020771
0.021394
0.021053
0.019497
0.018478
0.019211
0.020024
0.020916
0.021450
0.019803
0.019826
0.020545
0.019168
0.018762
0.018012
0.016573
0.014887
0.013654
0.013303
0.014000
0.015038
0.014848
0.014485
0.014735
0.016115
0.015827
0.014932
0.014655
0.016210
0.016878
0.018410
0.017141
0.013447
0.011966
0.010500
0.008353
0.006313
0.006296
0.008108
0.010511
0.012281
0.012466
0.013085
0.015003
0.016902
0.018783
0.018294
0.016068
0.013691
0.014385
0.015071
0.015141
0.015472
0.014842
0.013957
0.014038
0.014119
0.014199
0.015409
0.017827
0.020569
0.022500
0.024673
0.025866
0.026264
0.024482
0.021498
0.018545
0.017710
0.016883
0.016152
0.017953
0.017472
0.017692
0.017649
0.017346
0.019309
0.022384
0.023775
0.025500
0.026337
0.026469
0.025903
0.022383
0.019334
0.018926
0.020177
0.020980
0.022036
0.022908
0.024467
0.023660
0.026257
0.026303
0.026000
0.025352
0.026017
0.024672
0.023428
0.022284
0.022456
0.022540
0.022797
0.023052
0.022521
0.023997
0.025720
0.026119
0.026776
0.026382
0.026340
0.027430
0.026855
0.026024
0.027465
0.026019
0.025023
0.025342
0.025485
0.024929
0.024901
0.024699
0.024325
0.023172
0.023684
0.023930
0.024695
0.024931
0.025687
0.026696
0.027783
0.026682
0.026637
0.027288
0.026628
0.027715
0.029401
0.029502
0.028384
0.027713
0.027831
0.028123
0.028760
0.029129
0.029843
0.031421
0.033766
0.034347
0.036489
0.036695
0.035853
0.034236
0.033332
0.033134
0.030238
0.028939
0.028435
0.027937
0.027009
0.028702
0.030291
0.032386
0.033938
0.035475
0.034123
0.032698
0.031722
0.031627
0.033100
0.032642
0.032538
0.032347
0.030504
0.029550
0.030782
0.033395
0.036330
0.038279
0.039598
0.038989
0.039344
0.040653
0.042123
0.042011
0.039462
0.038071
0.038522
0.040622
0.041483
0.042423
0.043353
0.043925
0.042751
0.042546
0.043126
0.044224
0.044526
0.045000
0.044076
0.042290
0.038346
0.036182
0.034823
0.032607
0.030501
0.029634
0.031039
0.032170
0.033376
0.034222
0.034798
0.036413
0.037055
0.038561
0.040138
0.039176
0.039529
0.038833
0.036752
0.035039
0.035868
0.035645
0.034988
0.034686
0.035692
0.037038
0.039153
0.040464
0.041239
0.042007
0.043725
0.043423
0.043037
0.044048
0.044178
0.042827
0.041054
0.038689
0.036870
0.036984
0.037011
0.035731
0.034725
0.033903
0.037182
0.040689
0.044770
0.049072
0.051329
0.052867
0.054302
0.056333
0.057038
0.054340
0.052278
0.052849
0.052195
0.050590
0.048652
0.047082
0.046573
0.047897
0.049121
0.050593
0.051094
0.050719
0.051653
0.052927
0.053230
0.053268
0.052523
0.050132
0.047851
0.046115
0.045354
0.045558
0.044019
0.044585
0.045841
0.048043
0.051529
0.054110
0.055620
0.056854
0.058511
0.058933
0.058828
0.057331
0.055152
0.052821
0.049904
0.048147
0.046757
0.046773
0.048008
0.050536
0.051821
0.053180
0.054003
0.055514
0.054398
0.055470
0.055487
0.053849
0.051792
0.051236
0.051294
0.048653
0.044646
0.042942
0.041516
0.041497
0.041914
0.043632
0.044637
0.045197
0.047057
0.049421
0.051500
0.051556
0.050567
0.049936
0.048876
0.046955
0.044967
0.043086
0.041136
0.040773
0.041545
0.042571
0.044805
0.046060
0.048782
0.051390
0.053014
0.052620
0.051707
0.050542
0.049041
0.047554
0.046343
0.043403
0.040319
0.039354
0.037616
0.037026
0.037401
0.038816
0.041697
0.043244
0.045210
0.049073
0.049762
0.049749
0.049213
0.046941
0.044605
0.041247
0.038793
0.037234
0.036213
0.034593
0.035688
0.036075
0.036720
0.036836
0.038867
0.040267
0.043047
0.043361
0.041844
0.039210
0.037734
0.035664
0.033526
0.030192
0.028718
0.026737
0.027475
0.029250
0.030660
0.032403
0.033346
0.036978
0.038659
0.038756
0.039983
0.040154
0.039626
0.037276
0.035384
0.033685
0.032264
0.030161
0.027817
0.026019
0.025458
0.025164
0.025569
0.028582
0.032001
0.034340
0.034828
0.035573
0.035961
0.035301
0.034561
0.032434
0.030242
0.027550
0.023230
0.018691
0.015678
0.015917
0.017981
0.018023
0.020849
0.023648
0.026158
0.026205
0.025729
0.025432
0.023658
0.023556
0.021191
0.020155
0.019740
0.020634
0.021259
0.022051
0.020659
0.022067
0.022938
0.025803
0.028030
0.029974
0.030854
0.033727
0.035266
0.033568
0.032932
0.030213
0.026301
0.023126
0.020069
0.018957
0.018118
0.017114
0.017686
0.017992
0.019600
0.023282
0.026057
0.028978
0.029954
0.029441
0.028324
0.029133
0.029672
0.029597
0.029088
0.028583
0.025907
0.022213
0.018730
0.017719
0.018198
0.020501
0.022694
0.025300
0.026488
0.028186
0.029431
0.030404
0.028667
0.026426
0.023423
0.023149
0.020527
0.018018
0.016927
0.016892
0.019033
0.020719
0.022561
0.024821
0.026796
0.029449
0.030682
0.033383
0.036406
0.036612
0.036381
0.036674
0.035485
0.033698
0.033235
0.032602
0.031453
0.030577
0.031886
0.035184
0.038972
0.042287
0.042261
0.043279
0.045768
0.045968
0.046776
0.045137
0.041600
0.039665
0.038446
0.037848
0.035950
0.035203
0.035596
0.034417
0.034469
0.036088
0.036558
0.039288
0.042948
0.045876
0.049296
0.052508
0.053164
0.051549
0.048731
0.047161
0.045170
0.042939
0.043167
0.044003
0.044307
0.045654
0.049338
0.052463
0.054338
0.056281
0.057770
0.058895
0.059052
0.058510
0.057539
0.055968
0.055196
0.053039
0.049423
0.047845
0.046719
0.046474
0.047538
0.047982
0.050685
0.053709
0.055920
0.057586
0.059062
0.059129
0.057717
0.055795
0.053806
0.051924
0.049973
0.047955
0.043258
0.039391
0.039567
0.037391
0.035585
0.034929
0.038372
0.041170
0.043418
0.046080
0.046364
0.045774
0.045974
0.045650
0.043936
0.041543
0.039870
0.038648
0.037613
0.035892
0.034972
0.035802
0.038713
0.039680
0.042465
0.045310
0.048040
0.049350
0.050820
0.050622
0.051470
0.051004
0.049062
0.046792
0.044196
0.042670
0.042205
0.042789
0.045021
0.048363
0.051933
0.056251
0.060091
0.061280
0.060803
0.062247
0.064024
0.063608
0.062673
0.062008
0.059696
0.057407
0.055315
0.053679
0.053452
0.053924
0.055784
0.057974
0.061449
0.063931
0.065953
0.065516
0.065781
0.066827
0.065860
0.062204
0.058758
0.056217
0.051263
0.047143
0.045239
0.043355
0.045234
0.047006
0.048413
0.050067
0.051443
0.051848
0.052597
0.052294
0.051733
0.051003
0.049584
0.046612
0.044192
0.042405
0.040201
0.037670
0.036732
0.036413
0.035835
0.035264
0.036352
0.036820
0.039199
0.042598
0.043701
0.043660
0.043359
0.040710
0.040003
0.037997
0.034095
0.032670
0.030737
0.029781
0.031620
0.034660
0.037495
0.039693
0.043001
0.046885
0.049338
0.051244
0.052347
0.052308
0.050092
0.047551
0.047037
0.044438
0.039776
0.036553
0.034146
0.030718
0.029762
0.031166
0.033950
0.036618
0.038128
0.040407
0.043969
0.046189
0.046995
0.047270
0.045627
0.042433
0.038835
0.033968
0.030193
0.028111
0.028225
0.028078
0.030370
0.031594
0.032370
0.033748
0.036767
0.039321
0.039933
0.038450
0.035763
0.034322
0.031501
0.027664
0.022734
0.018549
0.016756
0.014546
0.013664
0.013313
0.016187
0.019119
0.020542
0.020732
0.021878
0.025189
0.026551
0.025637
0.025515
0.025394
0.025014
0.021241
0.018116
0.016066
0.013776
0.011683
0.011438
0.012676
0.014773
0.017981
0.021940
0.025250
0.028876
0.029941
0.029428
0.029181
0.026238
0.024630
0.022603
0.019551
0.019402
0.016469
0.016090
0.013974
0.013010
0.014146
0.015183
0.016384
0.017747
0.019271
0.019822
0.019148
0.018046
0.016519
0.015008
0.013338
0.011684
0.009698
0.008603
0.008564
0.008176
0.008663
0.009668
0.010227
0.013741
0.015827
0.018850
0.020798
0.023685
0.024627
0.024863
0.023443
0.020296
0.016832
0.013489
0.011485
0.008457
0.005807
0.004054
0.003537
0.003896
0.005036
0.007556
0.009094
0.011401
0.012465
0.012649
0.012917
0.012051
0.010236
0.007569
0.006059
0.004826
0.001429
-0.001761
-0.005180
-0.006649
-0.003838
-0.001403
-0.000385
0.000535
0.002578
0.003382
0.004353
0.006358
0.005992
0.002584
0.000340
-0.000662
-0.000957
-0.002904
-0.006225
-0.007162
-0.008611
-0.008654
-0.008173
-0.005434
-0.002809
-0.001429
0.000373
0.001199
0.001668
0.001436
0.001816
0.000712
-0.001773
-0.003712
-0.006154
-0.009355
-0.010957
-0.011673
-0.012642
-0.011600
-0.010393
-0.007284
-0.002986
-0.001169
0.001327
0.001621
0.002173
0.001414
0.000053
-0.002252
-0.005318
-0.008527
-0.009789
-0.010864
-0.012364
-0.012021
-0.010027
-0.008401
-0.006443
-0.005027
-0.002928
0.001326
0.003797
0.005111
0.003540
0.000851
-0.001287
-0.003492
-0.006284
-0.008265
-0.012142
-0.013716
-0.012315
-0.011014
-0.009988
-0.008711
-0.004660
-0.002391
-0.001276
-0.000608
0.000576
-0.001038
-0.002200
-0.002916
-0.004669
-0.004925
-0.005352
-0.004643
-0.003419
-0.002642
-0.000742
0.000444
0.003707
0.007895
0.011868
0.014146
0.014835
0.015343
0.015933
0.015821
0.013533
0.011180
0.008416
0.004983
0.003325
0.000901
0.000502
-0.000414
0.000420
0.002551
0.004923
0.007358
0.010465
0.012932
0.013894
0.013802
0.013537
0.012665
0.012498
0.010330
0.007487
0.004847
0.004758
0.004582
0.004496
0.004671
0.006325
0.008050
0.008886
0.010237
0.011400
0.013074
0.012903
0.012821
0.012043
0.010489
0.010170
0.008983
0.007372
0.007693
0.007140
0.005461
0.005192
0.006057
0.009438
0.012612
0.014883
0.017828
0.018742
0.021039
0.022704
0.020870
0.018532
0.015695
0.012625
0.009759
0.008576
0.007666
0.006679
0.008661
0.012016
0.014903
0.018109
0.021110
0.023819
0.027023
0.027758
0.027702
0.027473
0.026375
0.024243
0.023526
0.022554
0.019416
0.017092
0.017229
0.017191
0.018285
0.019020
0.021750
0.023234
0.024093
0.024074
0.023097
0.023436
0.024903
0.025659
0.024405
0.022206
0.022292
0.020636
0.020128
0.019626
0.019912
0.021153
0.025516
0.029662
0.032460
0.035491
0.038406
0.039289
0.038857
0.039126
0.038173
0.035750
0.033438
0.031932
0.029397
0.027670
0.026745
0.024783
0.021797
0.020320
0.021557
0.023565
0.025466
0.026478
0.026783
0.027085
0.028951
0.028970
0.028119
0.025970
0.023494
0.023219
0.022251
0.021118
0.019474
0.017585
0.016933
0.017681
0.018335
0.018547
0.019889
0.021391
0.023314
0.024260
0.026154
0.026985
0.026153
0.024372
0.022434
0.020864
0.019048
0.017251
0.016080
0.016750
0.018284
0.020499
0.023214
0.025380
0.027959
0.029904
0.030262
0.031400
0.031221
0.030434
0.030351
0.028528
0.026027
0.025291
0.024912
0.024797
0.024684
0.024484
0.024374
0.025135
0.025889
0.025416
0.026254
0.025429
0.026180
0.024312
0.021678
0.020464
0.020654
0.021627
0.022590
0.024065
0.025265
0.025234
0.027292
0.030201
0.033081
0.035933
0.037624
0.039298
0.039214
0.038870
0.040793
0.041043
0.038156
0.037387
0.035145
0.031011
0.027353
0.024863
0.022833
0.023436
0.024468
0.026012
0.027453
0.029490
0.031767
0.033587
0.033299
0.032665
0.032212
0.029675
0.027684
0.027368
0.026358
0.025445
0.024193
0.023563
0.022069
0.021634
0.022162
0.022945
0.024069
0.024920
0.024457
0.024173
0.023891
0.022307
0.019606
0.017629
0.016106
0.015731
0.015359
0.014295
0.012980
0.011852
0.015263
0.019249
0.022499
0.024585
0.026737
0.027649
0.028639
0.030925
0.032231
0.030389
0.031439
0.028821
0.025795
0.024452
0.020860
0.018783
0.017336
0.016948
0.016565
0.017926
0.020406
0.023557
0.028593
0.031054
0.032010
0.032173
0.032682
0.031446
0.029960
0.027096
0.025131
0.024753
0.024117
0.020267
0.019502
0.020051
0.020855
0.022174
0.023915
0.025029
0.026306
0.025307
0.025101
0.023069
0.022624
0.020965
0.018104
0.017447
0.014882
0.011820
0.010616
0.012037
0.013530
0.016141
0.019073
0.021281
0.023553
0.025889
0.026549
0.026940
0.026196
0.026068
0.026116
0.023377
0.021711
0.019800
0.018604
0.019423
0.021452
0.024332
0.024397
0.027509
0.031809
0.033889
0.036384
0.037722
0.039047
0.039924
0.040182
0.039567
0.038001
0.035753
0.035444
0.035224
0.034136
0.033407
0.034340
0.036047
0.039565
0.043048
0.046236
0.048347
0.048608
0.047822
0.048438
0.047044
0.046709
0.046639
0.046134
0.044067
0.042542
0.040598
0.039021
0.038331
0.038779
0.040529
0.039824
0.041302
0.042765
0.044475
0.045385
0.046024
0.045264
0.044686
0.043591
0.042245
0.038998
0.035783
0.034515
0.032999
0.030975
0.029669
0.028984
0.027958
0.030338
0.033826
0.037715
0.040433
0.041470
0.040755
0.040570
0.039167
0.037605
0.035536
0.034183
0.032758
0.031433
0.029947
0.027345
0.026770
0.026637
0.028334
0.031493
0.034273
0.037461
0.038963
0.039231
0.038538
0.037504
0.036655
0.035117
0.033421
0.032351
0.029812
0.028168
0.026802
0.026669
0.027233
0.027617
0.028695
0.030371
0.032640
0.035234
0.035887
0.036534
0.035346
0.032254
0.029281
0.025118
0.021170
0.018742
0.019037
0.019416
0.020052
0.022859
0.024593
0.027877
0.030693
0.033133
0.033285
0.034915
0.036094
0.035955
0.033989
0.033436
0.031582
0.029311
0.027237
0.025010
0.024459
0.025393
0.026493
0.026711
0.028494
0.029998
0.032793
0.034776
0.036827
0.039206
0.040168
0.041033
0.040671
0.037874
0.035193
0.032625
0.029822
0.029310
0.031850
0.034540
0.035896
0.036630
0.039533
0.041798
0.043343
0.044351
0.044739
0.046865
0.047577
0.047063
0.046031
0.045358
0.043124
0.042219
0.040800
0.038699
0.038621
0.042201
0.044091
0.045004
0.045038
0.046813
0.048308
0.048918
0.050567
0.050372
0.049655
0.047379
0.046083
0.043320
0.041106
0.039089
0.038573
0.039541
0.039803
0.039366
0.038933
0.039288
0.037724
0.036438
0.037949
0.039011
0.037885
0.038425
0.038350
0.037666
0.036728
0.034929
0.030883
0.028794
0.027334
0.028414
0.029571
0.030629
0.032111
0.034189
0.034765
0.036990
0.039541
0.039542
0.038412
0.038598
0.038347
0.036793
0.035428
0.032597
0.030926
0.030316
0.028058
0.026693
0.027953
0.030333
0.032689
0.034761
0.036638
0.037103
0.034777
0.033346
0.032538
0.032260
0.030679
0.028591
0.024522
0.021973
0.019798
0.019212
0.016977
0.017116
0.018646
0.020160
0.022008
0.023664
0.023213
0.023725
0.022403
0.022226
0.021268
0.019622
0.018515
0.016114
0.014519
0.013028
0.012335
0.011997
0.013230
0.014102
0.017229
0.019977
0.023307
0.025123
0.027096
0.027047
0.026040
0.025392
0.025621
0.023148
0.020004
0.017848
0.016411
0.015075
0.013839
0.014096
0.015134
0.014594
0.015714
0.017867
0.019477
0.021244
0.022298
0.021164
0.020303
0.018232
0.015920
0.012761
0.011026
0.010788
0.010814
0.012406
0.014593
0.015800
0.016037
0.015575
0.016337
0.017352
0.018967
0.021175
0.022665
0.024923
0.025592
0.024687
0.022485
0.022307
0.020999
0.020488
0.020592
0.019649
0.017759
0.019021
0.020271
0.021073
0.023608
0.026119
0.029736
0.032968
0.034515
0.036568
0.036686
0.035409
0.034319
0.031760
0.031403
0.031833
0.030866
0.029125
0.027750
0.029348
0.033368
0.035433
0.038261
0.040625
0.041921
0.043466
0.042731
0.041743
0.039981
0.038497
0.036680
0.037058
0.035952
0.033551
0.031347
0.030472
0.029780
0.029268
0.030677
0.034162
0.036741
0.038424
0.039916
0.039304
0.037740
0.036366
0.034483
0.032619
0.029729
0.027825
0.026810
0.026503
0.028984
0.031267
0.032134
0.033427
0.035317
0.036231
0.037135
0.037683
0.037441
0.036940
0.035400
0.032830
0.029502
0.026120
0.022946
0.020674
0.019296
0.019324
0.019700
0.021030
0.021825
0.022089
0.023309
0.023558
0.026243
0.027073
0.028591
0.029310
0.025930
0.024238
0.020386
0.019359
0.015817
0.011266
0.010155
0.010796
0.011431
0.013105
0.016068
0.019437
0.022859
0.026248
0.029080
0.030143
0.029628
0.029205
0.028177
0.026114
0.024420
0.023527
0.022294
0.021683
0.021426
0.020998
0.021358
0.022062
0.024065
0.026048
0.028534
0.030822
0.032825
0.033502
0.032083
0.030329
0.028158
0.025574
0.025539
0.024896
0.023737
0.022763
0.022496
0.022231
0.024319
0.025168
0.026531
0.027793
0.030000
0.032099
0.033131
0.034763
0.034725
0.034338
0.033695
0.032274
0.030606
0.029825
0.028703
0.026636
0.024501
0.025522
0.026272
0.028059
0.031744
0.032084
0.031463
0.031022
0.031368
0.030841
0.030145
0.029543
0.028512
0.026533
0.026228
0.026710
0.025793
0.024277
0.025300
0.026227
0.027840
0.029612
0.031801
0.033098
0.036210
0.037028
0.036967
0.035774
0.034071
0.033256
0.031926
0.031307
0.030170
0.030352
0.030531
0.030099
0.029063
0.029081
0.028837
0.030164
0.033131
0.034850
0.032895
0.030350
0.025915
0.022395
0.019345
0.017545
0.015414
0.013478
0.011910
0.012795
0.014194
0.016798
0.020247
0.022007
0.022878
0.023306
0.021902
0.020337
0.021574
0.020621
0.019505
0.018399
0.015127
0.011105
0.009909
0.008986
0.008768
0.007421
0.006958
0.007545
0.007516
0.009751
0.011615
0.013548
0.016071
0.016654
0.016273
0.014416
0.011881
0.009719
0.005490
0.004262
0.002438
0.003156
0.005609
0.008472
0.011133
0.013767
0.015853
0.018179
0.022397
0.025094
0.028024
0.029794
0.029979
0.028421
0.026269
0.024312
0.022114
0.020895
0.021169
0.020221
0.021023
0.023385
0.025984
0.027252
0.029813
0.031739
0.033037
0.033973
0.031243
0.030021
0.026721
0.023367
0.020656
0.017884
0.014879
0.012688
0.012521
0.013313
0.016012
0.018946
0.020458
0.021781
0.022742
0.026132
0.027572
0.029172
0.029624
0.027895
0.026358
0.024227
0.022900
0.021151
0.020203
0.019787
0.018156
0.018109
0.018062
0.019844
0.021172
0.024229
0.024992
0.025486
0.026062
0.026110
0.025461
0.025254
0.023307
0.021293
0.019647
0.018627
0.018140
0.019050
0.019342
0.019195
0.020356
0.022290
0.027425
0.031116
0.033377
0.034049
0.034888
0.033629
0.031948
0.030196
0.028461
0.025961
0.024704
0.021283
0.017983
0.015064
0.015221
0.017031
0.019520
0.023464
0.026237
0.028024
0.029881
0.031197
0.031803
0.030401
0.027359
0.023389
0.020938
0.020167
0.019664
0.019514
0.019105
0.016784
0.015967
0.017421
0.020167
0.023669
0.025744
0.027449
0.028093
0.028469
0.028058
0.026780
0.024470
0.023402
0.022083
0.019472
0.017670
0.015015
0.013693
0.014038
0.015076
0.014798
0.015916
0.018851
0.021931
0.023326
0.022356
0.022267
0.021482
0.019051
0.016818
0.014433
0.010330
0.009142
0.007878
0.006104
0.005742
0.006601
0.009194
0.010280
0.011269
0.011203
0.012095
0.013066
0.014026
0.014281
0.013140
0.011576
0.008808
0.004761
0.002061
0.000955
-0.000402
0.001390
0.003424
0.005787
0.008649
0.010437
0.011773
0.014836
0.015953
0.015492
0.016342
0.016748
0.017237
0.014325
0.010572
0.006856
0.003439
0.000055
-0.002511
-0.002788
-0.002801
-0.001595
-0.000402
0.000432
0.003173
0.005974
0.007353
0.006020
0.005832
0.005646
0.004069
0.003465
0.002693
-0.001205
-0.005500
-0.007576
-0.009718
-0.010881
-0.008899
-0.004846
-0.001182
0.001314
0.003872
0.005969
0.008829
0.009048
0.009091
0.008089
0.009099
0.009665
0.009963
0.008430
0.005432
0.004379
0.003598
0.004392
0.005701
0.004906
0.002988
0.002656
0.001980
0.001658
0.002384
0.003190
0.003465
0.004696
0.005479
0.008692
0.011002
0.012680
0.013993
0.015119
0.012751
0.011712
0.011032
0.010533
0.008298
0.006433
0.005457
0.004840
0.001965
0.000424
-0.001537
-0.000953
-0.000810
0.001595
0.003279
0.005121
0.007032
0.010316
0.009650
0.010036
0.010417
0.010012
0.010393
0.009552
0.008720
0.009115
0.009766
0.009715
0.008272
0.007191
0.006469
0.007147
0.007819
0.010051
0.011129
0.009497
0.008230
0.006888
0.006953
0.007539
0.007423
0.008701
0.008312
0.007928
0.006763
0.007003
0.007676
0.008255
0.006391
0.006721
0.006265
0.007294
0.007529
0.007239
0.006168
0.007198
0.006476
0.007676
0.006601
0.008236
0.010464
0.009361
0.009749
0.010308
0.009294
0.007419
0.005215
0.004774
0.003118
0.001131
0.001775
0.001542
0.000876
-0.000305
0.002182
0.008214
0.012792
0.014104
0.014532
0.013215
0.012520
0.011832
0.010193
0.009267
0.007393
0.004841
0.001966
-0.000533
-0.002397
-0.002936
-0.002426
-0.000179
0.003700
0.008933
0.013679
0.018551
0.021025
0.021906
0.022866
0.024426
0.025187
0.023241
0.021837
0.020882
0.017848
0.014495
0.010304
0.007897
0.007081
0.008015
0.007894
0.011431
0.015978
0.019957
0.024158
0.027708
0.031048
0.034528
0.035189
0.035407
0.033882
0.032894
0.033048
0.030676
0.027892
0.023308
0.018943
0.016014
0.013637
0.012764
0.013815
0.015117
0.015970
0.018643
0.022596
0.029208
0.038802
0.047604
0.052835
0.052182
0.048313
0.041958
0.033751
0.022752
0.011689
0.000649
-0.006016
-0.007738
-0.005873
0.000239
0.008379
0.018180
0.025794
0.031591
0.035415
0.038417
0.038690
0.036175
0.034120
0.034087
0.035884
0.034006
0.031102
0.022219
0.010813
0.003090
-0.000378
-0.001286
-0.000182
0.005873
0.012826
0.020842
0.027384
0.034994
0.042353
0.049814
0.054936
0.056525
0.054964
0.053680
0.057023
0.061987
0.067162
0.069239
0.068248
0.058909
0.045831
0.026093
0.002895
-0.019638
-0.039769
-0.053345
-0.059124
-0.055442
-0.043787
-0.023107
-0.000281
0.026149
0.051706
0.071262
0.080873
0.080114
0.075619
0.065684
0.053497
0.040125
0.026190
0.013700
0.001072
-0.010298
-0.018942
-0.022626
-0.018959
-0.010192
0.005018
0.022775
0.041052
0.060628
0.075394
0.082787
0.081922
0.069138
0.046817
0.021845
-0.009234
-0.039568
-0.063594
-0.078064
-0.080811
-0.071689
-0.057174
-0.036447
-0.014098
0.009944
0.033399
0.053747
0.072500
0.086190
0.092344
0.092516
0.086156
0.072111
0.055246
0.037416
0.015672
-0.006552
-0.025159
-0.038010
-0.044550
-0.043800
-0.037485
-0.024615
-0.006215
0.014440
0.034368
0.052529
0.066679
0.079035
0.084476
0.082637
0.077333
0.068949
0.056642
0.042020
0.026150
0.010352
-0.005203
-0.019906
-0.033156
-0.041051
-0.046343
-0.045923
-0.041241
-0.032600
-0.017777
0.000903
0.021314
0.040563
0.054571
0.063564
0.066896
0.063316
0.055071
0.042902
0.029984
0.014583
0.001163
-0.010382
-0.018591
-0.022974
-0.023570
-0.022680
-0.017359
-0.008085
0.003447
0.016170
0.027983
0.036631
0.044497
0.047931
0.048197
0.044368
0.036920
0.026500
0.015921
0.005013
-0.004916
-0.009697
-0.010947
-0.009573
-0.005514
0.000333
0.007689
0.014363
0.018707
0.022049
0.021963
0.021529
0.020926
0.020677
0.019211
0.016976
0.016070
0.016566
0.016447
0.014414
0.011095
0.007026
0.007524
0.008627
0.009284
0.013765
0.018463
0.023027
0.024759
0.024733
0.022705
0.021741
0.021136
0.022365
0.023059
0.022266
0.020262
0.019236
0.017088
0.015397
0.015987
0.014742
0.015512
0.016274
0.015636
0.013785
0.011779
0.009096
0.004524
0.001304
-0.001275
-0.002174
-0.000539
0.002212
0.005022
0.007107
0.010217
0.014602
0.017376
0.019948
0.022930
0.024925
0.025855
0.025295
0.023784
0.019936
0.015518
0.008793
0.001786
-0.001581
-0.003261
-0.001876
0.002803
0.007958
0.014542
0.024021
0.035059
0.046684
0.057410
0.065243
0.069951
0.069562
0.063953
0.050826
0.031125
0.004916
-0.020248
-0.042638
-0.058013
-0.063571
-0.062631
-0.052820
-0.037186
-0.020315
-0.001783
0.018654
0.037843
0.052574
0.061935
0.063629
0.058079
0.050495
0.037589
0.022198
0.006787
-0.008470
-0.022444
-0.033928
-0.042686
-0.047004
-0.042572
-0.033658
-0.017082
0.003246
0.024329
0.044332
0.060915
0.076026
0.085938
0.088785
0.083943
0.076798
0.066155
0.052744
0.037726
0.024163
0.009080
-0.003850
-0.014300
-0.025691
-0.032354
-0.034076
-0.030556
-0.021848
-0.012094
-0.001829
0.009206
0.020217
0.030423
0.036783
0.040033
0.041074
0.036967
0.028287
0.008985
-0.016568
-0.042302
-0.067780
-0.091351
-0.108070
-0.110693
-0.093090
-0.059555
-0.013730
0.039127
0.093373
0.142987
0.180267
0.197674
0.196363
0.179654
0.152664
0.123156
0.087499
0.052372
0.016809
-0.018486
-0.047683
-0.059961
-0.064107
-0.052714
-0.030639
0.001578
0.035041
0.062077
0.084142
0.092580
0.090660
0.079617
0.062329
0.039989
0.009077
-0.025183
-0.065720
-0.107072
-0.145052
-0.172120
-0.185075
-0.182839
-0.171136
-0.138131
-0.087519
-0.025657
0.039595
0.100888
0.152866
0.199276
0.231905
0.249233
0.253067
0.241106
0.213243
0.171204
0.123664
0.070937
0.019084
-0.031906
-0.077599
-0.113261
-0.142647
-0.157202
-0.152718
-0.130605
-0.092344
-0.039837
0.022334
0.086063
0.152032
0.215602
0.267135
0.301264
0.316509
0.308704
0.289136
0.250608
0.194268
0.118289
0.028091
-0.070612
-0.173296
-0.272172
-0.351867
-0.407785
-0.428669
-0.407119
-0.347126
-0.251686
-0.141437
-0.015569
0.115926
0.234009
0.325495
0.384815
0.404191
0.409009
0.381217
0.327669
0.256283
0.174986
0.087358
-0.000790
-0.083535
-0.153441
-0.202278
-0.223640
-0.215274
-0.175996
-0.124659
-0.053286
0.028696
0.111951
0.186629
0.243064
0.277085
0.299187
0.295821
0.272899
0.233315
0.187072
0.139722
0.096935
0.057273
0.025580
0.003518
-0.007354
-0.009498
-0.003611
0.004829
0.017800
0.030642
0.044226
0.056805
0.063686
0.063186
0.060339
0.053865
0.046236
0.039379
0.034680
0.034642
0.039654
0.046097
0.056045
0.067549
0.077370
0.084918
0.088211
0.087205
0.086210
0.080958
0.075061
0.068614
0.059097
0.047150
0.034973
0.021873
0.010905
0.000395
-0.007399
-0.011023
-0.011564
-0.008878
-0.000907
0.012033
0.027980
0.047163
0.067113
0.086777
0.105114
0.120830
0.130644
0.134527
0.128968
0.115194
0.093373
0.067850
0.037968
0.006293
-0.022977
-0.044382
-0.055561
-0.057225
-0.053214
-0.038447
-0.017210
0.008778
0.039732
0.070029
0.094715
0.116368
0.131537
0.139155
0.135727
0.120667
0.098791
0.074085
0.048494
0.018717
-0.007455
-0.026054
-0.036283
-0.037704
-0.034323
-0.022443
-0.005979
0.013803
0.034868
0.053634
0.066816
0.076297
0.078892
0.075193
0.068309
0.057576
0.045470
0.032874
0.022146
0.011262
0.001532
-0.005228
-0.009135
-0.008736
-0.007123
-0.003437
0.002042
0.009120
0.018565
0.027568
0.034479
0.018598
0.022725
0.024548
0.022347
0.018253
0.011326
0.005252
-0.001632
-0.011147
-0.019957
-0.026765
-0.030196
-0.033942
-0.035038
-0.034121
-0.030427
-0.024419
-0.016729
-0.006069
0.003093
0.011379
0.019409
0.024660
0.027943
0.028408
0.028868
0.022445
0.013736
0.003720
-0.008112
-0.017214
-0.021960
-0.025526
-0.024965
-0.023973
-0.019510
-0.015439
-0.009754
-0.003952
0.001184
0.007138
0.012947
0.019394
0.026908
0.033304
0.034673
0.031675
0.024702
0.017015
0.006705
0.001286
-0.003991
-0.008868
-0.013696
-0.014646
-0.014802
-0.013477
-0.010163
-0.006359
-0.001461
0.003301
0.007581
0.011382
0.014275
0.017052
0.018757
0.020793
0.023854
0.021660
0.017921
0.012304
0.006133
-0.001718
-0.008358
-0.009970
-0.010696
-0.008541
-0.004753
-0.001612
0.001671
0.004051
0.003448
0.001980
-0.001041
-0.002116
0.000563
0.005479
0.011826
0.018023
0.024246
0.029013
0.028858
0.025918
0.020482
0.015623
0.008026
0.001375
-0.003207
-0.007569
-0.010930
-0.015477
-0.018237
-0.017313
-0.014396
-0.004194
0.011391
0.028650
0.042951
0.050493
0.052561
0.043552
0.030105
0.015834
-0.000645
-0.012782
-0.018703
-0.019428
-0.014226
-0.007683
-0.001292
0.005558
0.010773
0.014630
0.019319
0.025180
0.028371
0.033533
0.036902
0.033708
0.030546
0.026109
0.021106
0.020681
0.019651
0.019937
0.018740
0.020950
0.022268
0.021570
0.016874
0.012225
0.011627
0.013386
0.016782
0.022929
0.031541
0.039457
0.047730
0.050697
0.049977
0.047959
0.043175
0.037306
0.028449
0.020985
0.014293
0.009060
0.005359
0.000912
-0.002098
-0.002728
-0.001871
0.002808
0.010836
0.019046
0.027783
0.038261
0.048636
0.058210
0.066819
0.072817
0.075795
0.072301
0.063705
0.049448
0.033940
0.019631
0.005291
-0.008298
-0.017050
-0.021100
-0.019277
-0.010855
0.001314
0.014494
0.027891
0.042460
0.057668
0.068198
0.074182
0.074187
0.070883
0.065870
0.056119
0.040980
0.025034
0.008811
-0.005074
-0.018037
-0.027911
-0.031940
-0.030357
-0.024263
-0.011438
0.004568
0.021546
0.038355
0.056826
0.074067
0.087481
0.095450
0.099858
0.099955
0.090909
0.078210
0.061371
0.042088
0.022213
0.003755
-0.012344
-0.021752
-0.024798
-0.019978
-0.011636
0.002456
0.019107
0.039772
0.059273
0.077187
0.089873
0.099298
0.102535
0.102345
0.094234
0.082633
0.065924
0.046421
0.028157
0.011294
-0.003486
-0.011590
-0.012038
-0.008128
0.002534
0.017356
0.033075
0.052120
0.069409
0.079822
0.088041
0.089997
0.088713
0.085177
0.076714
0.064852
0.053544
0.041043
0.032670
0.025949
0.020948
0.019045
0.021078
0.024658
0.032643
0.039591
0.045773
0.052415
0.058992
0.062543
0.064405
0.065377
0.063989
0.059046
0.054325
0.048781
0.044598
0.039934
0.036623
0.031081
0.025507
0.022165
0.020162
0.020182
0.019940
0.023357
0.028482
0.034339
0.040312
0.046661
0.051641
0.052566
0.053221
0.050039
0.046975
0.041939
0.035909
0.029764
0.024465
0.020698
0.020015
0.018905
0.019808
0.021137
0.024629
0.030003
0.035845
0.041367
0.046661
0.049987
0.049971
0.049607
0.048811
0.045759
0.041867
0.037318
0.033075
0.028700
0.026371
0.024413
0.024739
0.025671
0.028160
0.031844
0.036710
0.039003
0.041795
0.044473
0.045731
0.046453
0.045689
0.044236
0.040969
0.036863
0.034540
0.032240
0.031182
0.029960
0.029882
0.031024
0.030761
0.031720
0.032495
0.033437
0.036024
0.038062
0.039732
0.040689
0.041201
0.041620
0.038640
0.037519
0.037539
0.037735
0.037666
0.038383
0.035522
0.032690
0.031801
0.032575
0.033516
0.032445
0.031646
0.034163
0.034479
0.034008
0.034238
0.034901
0.034774
0.034735
0.034174
0.031182
0.028654
0.027283
0.026883
0.026227
0.026099
0.024841
0.023856
0.026016
0.025803
0.025853
0.025903
0.026475
0.026345
0.027000
0.028083
0.029504
0.030389
0.030568
0.030484
0.030575
0.031449
0.031356
0.031961
0.033952
0.037143
0.039606
0.043176
0.046014
0.047343
0.048398
0.049269
0.048564
0.045341
0.041540
0.038474
0.037528
0.037897
0.039394
0.042008
0.045032
0.046458
0.047958
0.049964
0.051864
0.053397
0.054914
0.055807
0.053905
0.054024
0.053358
0.053221
0.052738
0.051389
0.051968
0.050104
0.051306
0.055282
0.058957
0.062160
0.064374
0.066914
0.068993
0.070355
0.070920
0.071131
0.071253
0.070155
0.067762
0.064870
0.062530
0.061779
0.062255
0.062204
0.063721
0.064962
0.066364
0.067491
0.068694
0.070494
0.072451
0.071602
0.070065
0.069936
0.069808
0.069421
0.068690
0.065789
0.064396
0.064237
0.062164
0.061679
0.060589
0.060467
0.061653
0.063872
0.065023
0.066425
0.065723
0.063722
0.063308
0.061419
0.061985
0.059761
0.057558
0.055116
0.054265
0.052291
0.051469
0.049000
0.046643
0.046748
0.047635
0.049035
0.048506
0.049637
0.049189
0.052228
0.052887
0.051971
0.050630
0.049998
0.049634
0.047444
0.043449
0.041060
0.038782
0.035221
0.034916
0.035050
0.036924
0.039302
0.043833
0.048318
0.050757
0.053258
0.053384
0.051419
0.047906
0.044515
0.041332
0.037397
0.032718
0.028172
0.027068
0.028063
0.030529
0.033580
0.036339
0.039942
0.044031
0.048079
0.049736
0.048504
0.047023
0.042857
0.037427
0.032573
0.029422
0.025083
0.022007
0.018351
0.016648
0.017225
0.019624
0.022609
0.027567
0.031257
0.035084
0.038003
0.040718
0.041752
0.040251
0.037459
0.034956
0.031694
0.027071
0.023366
0.020132
0.018324
0.017665
0.018058
0.020623
0.024556
0.027666
0.030746
0.032749
0.033689
0.033748
0.033458
0.033520
0.033929
0.032680
0.030833
0.029180
0.028065
0.025655
0.022486
0.020480
0.017797
0.018624
0.020662
0.023114
0.025368
0.028035
0.029369
0.028252
0.026363
0.026060
0.027501
0.027970
0.024864
0.020919
0.020061
0.016512
0.014739
0.013681
0.013068
0.012636
0.015778
0.018453
0.022321
0.025540
0.027857
0.028584
0.030696
0.030785
0.028697
0.025671
0.021283
0.015719
0.012039
0.009179
0.006522
0.005546
0.006320
0.008045
0.010100
0.011091
0.012419
0.014780
0.015898
0.014915
0.013768
0.013416
0.013416
0.012893
0.013159
0.011420
0.009959
0.007991
0.007087
0.009239
0.009977
0.012623
0.016461
0.018868
0.021861
0.025172
0.025838
0.026237
0.025934
0.022762
0.020318
0.017550
0.016203
0.015304
0.014589
0.013184
0.013360
0.013621
0.016231
0.019337
0.022238
0.024675
0.026652
0.029741
0.033322
0.035562
0.035776
0.033464
0.031000
0.028474
0.025886
0.024282
0.022693
0.019902
0.018792
0.018999
0.021991
0.023472
0.026071
0.028992
0.032754
0.034999
0.036787
0.036902
0.035623
0.033226
0.028936
0.024689
0.025186
0.029509
0.031786
0.033257
0.033321
0.030772
0.028596
0.028009
0.024817
0.022614
0.021825
0.023569
0.027995
0.032813
0.036189
0.037964
0.035282
0.031755
0.029309
0.028367
0.026999
0.025993
0.024910
0.023750
0.024518
0.025539
0.024896
0.022779
0.021031
0.022871
0.025388
0.028055
0.033481
0.039376
0.041990
0.043011
0.044197
0.045109
0.042356
0.036757
0.032954
0.030235
0.027368
0.024878
0.025547
0.027429
0.028769
0.028007
0.027600
0.027545
0.027405
0.027439
0.026429
0.024993
0.022788
0.020779
0.020009
0.018637
0.018062
0.018538
0.018922
0.019912
0.021937
0.022461
0.021587
0.020461
0.019258
0.018155
0.019153
0.019792
0.017203
0.013073
0.010377
0.010494
0.012003
0.013497
0.014541
0.013920
0.013218
0.014439
0.019739
0.024377
0.028795
0.031776
0.034466
0.036085
0.037339
0.037014
0.034080
0.029433
0.023527
0.016461
0.008856
0.002894
-0.002574
-0.006333
-0.006572
-0.005155
-0.003664
0.000249
0.008564
0.018537
0.031807
0.047643
0.056879
0.061757
0.060493
0.055583
0.045412
0.034994
0.026856
0.016274
0.008410
0.007066
0.009045
0.014312
0.022574
0.028838
0.036085
0.042824
0.048887
0.053409
0.053882
0.052608
0.047777
0.042124
0.036527
0.030464
0.024548
0.021389
0.024009
0.030781
0.039053
0.048810
0.055510
0.056919
0.057357
0.055178
0.050931
0.046291
0.039956
0.032553
0.027922
0.027168
0.029816
0.035399
0.042320
0.048562
0.055873
0.061284
0.066901
0.069590
0.065113
0.057807
0.047614
0.036216
0.027283
0.020615
0.016190
0.013376
0.015378
0.022671
0.033897
0.045012
0.055319
0.065088
0.073715
0.077033
0.074658
0.067345
0.057579
0.046952
0.038173
0.028959
0.018878
0.012207
0.011000
0.012765
0.021739
0.031668
0.041063
0.050713
0.060963
0.068587
0.073261
0.074755
0.074058
0.071800
0.067388
0.058492
0.049685
0.042098
0.034672
0.027147
0.021699
0.019614
0.020945
0.023830
0.027383
0.029681
0.033002
0.037073
0.039188
0.040673
0.040053
0.037698
0.035366
0.033580
0.030506
0.027114
0.024801
0.021815
0.018683
0.017847
0.017890
0.018629
0.020579
0.021291
0.022083
0.020690
0.020008
0.019159
0.021365
0.024420
0.026487
0.028446
0.031430
0.030728
0.030556
0.031691
0.031857
0.030019
0.028373
0.025264
0.023230
0.023481
0.023293
0.023020
0.024405
0.025775
0.027306
0.029518
0.031621
0.032833
0.032727
0.030445
0.030188
0.028366
0.025692
0.022000
0.019216
0.018113
0.017892
0.015757
0.016865
0.018311
0.021222
0.024714
0.027822
0.031858
0.033241
0.033827
0.036845
0.038092
0.039762
0.039760
0.037495
0.034469
0.032083
0.029198
0.028867
0.028190
0.030219
0.031619
0.032482
0.032292
0.032104
0.031047
0.031133
0.031740
0.028771
0.028270
0.027164
0.026678
0.027330
0.027800
0.029050
0.029329
0.029693
0.029705
0.028411
0.028087
0.027245
0.025452
0.023504
0.022184
0.019920
0.020116
0.020572
0.019629
0.019132
0.019423
0.019711
0.019474
0.021242
0.023428
0.024111
0.025049
0.026849
0.028543
0.028392
0.026850
0.024800
0.023381
0.021888
0.019975
0.018168
0.017163
0.017648
0.017779
0.018084
0.019169
0.019024
0.018445
0.018482
0.019563
0.020111
0.021350
0.022664
0.023268
0.022473
0.021599
0.021256
0.020917
0.017447
0.014968
0.013211
0.011559
0.011229
0.012034
0.014485
0.015954
0.016103
0.018426
0.022642
0.024291
0.023660
0.022078
0.021034
0.022002
0.022526
0.023219
0.022686
0.020416
0.019128
0.018896
0.019277
0.019567
0.019853
0.019963
0.020246
0.022702
0.023480
0.026166
0.028564
0.029283
0.029386
0.027747
0.026646
0.025818
0.025085
0.025578
0.026762
0.026978
0.028061
0.029743
0.031322
0.032537
0.034174
0.035447
0.036795
0.037868
0.038408
0.037201
0.035049
0.031960
0.029947
0.026387
0.025300
0.023179
0.022646
0.023424
0.024630
0.025389
0.026663
0.027401
0.027697
0.029296
0.030444
0.028707
0.026029
0.025555
0.024390
0.021668
0.020105
0.019168
0.016760
0.016291
0.017916
0.020309
0.022416
0.024764
0.028482
0.030857
0.033034
0.034579
0.033062
0.033128
0.032409
0.029608
0.028227
0.024858
0.022568
0.023347
0.024728
0.026095
0.028058
0.030698
0.034183
0.038329
0.041476
0.044244
0.046375
0.048920
0.049872
0.050293
0.048010
0.045141
0.042213
0.038704
0.035753
0.032832
0.032377
0.031927
0.031917
0.031123
0.030337
0.031126
0.033213
0.033799
0.033770
0.034873
0.036052
0.036697
0.037075
0.035794
0.032698
0.030155
0.027115
0.025760
0.024331
0.024570
0.026200
0.026334
0.027772
0.029370
0.031649
0.033818
0.035443
0.037139
0.038296
0.040224
0.040393
0.038992
0.037954
0.035272
0.031571
0.028430
0.026800
0.026667
0.025490
0.024412
0.025608
0.028882
0.033168
0.036715
0.040227
0.045183
0.048176
0.047655
0.048446
0.047662
0.045406
0.042736
0.041487
0.038682
0.037560
0.038538
0.038288
0.037256
0.035277
0.033754
0.034073
0.035522
0.036956
0.039681
0.041161
0.042974
0.043376
0.041859
0.040879
0.038080
0.035745
0.033172
0.030363
0.029584
0.027159
0.027806
0.028446
0.031169
0.033169
0.035323
0.038500
0.041210
0.042326
0.042996
0.043572
0.044578
0.044267
0.042654
0.041666
0.039905
0.039032
0.038863
0.041309
0.043034
0.046308
0.048070
0.051033
0.053793
0.055655
0.053667
0.051699
0.050012
0.047122
0.042521
0.039619
0.037355
0.037639
0.037920
0.037937
0.038564
0.039706
0.041969
0.043687
0.047565
0.050098
0.051561
0.051268
0.051152
0.051038
0.050402
0.049163
0.046195
0.044040
0.041733
0.040754
0.040743
0.040123
0.041424
0.045672
0.048398
0.052316
0.056630
0.060553
0.063740
0.064545
0.062295
0.061721
0.059586
0.057994
0.056419
0.053901
0.051582
0.050506
0.050049
0.052296
0.053041
0.053604
0.055903
0.057221
0.057482
0.057913
0.058863
0.059281
0.059086
0.057586
0.055579
0.053070
0.051195
0.051254
0.051922
0.051017
0.051164
0.049918
0.048249
0.047205
0.047739
0.047310
0.048279
0.048802
0.047840
0.046017
0.047521
0.047269
0.045974
0.044169
0.044211
0.043818
0.042992
0.042959
0.042752
0.044114
0.047117
0.047477
0.048880
0.049310
0.050084
0.048674
0.046147
0.043296
0.039167
0.035080
0.033210
0.031707
0.030131
0.029442
0.029892
0.029467
0.031135
0.032525
0.032161
0.032235
0.031873
0.033953
0.035577
0.037359
0.038339
0.038003
0.037236
0.036563
0.033634
0.031430
0.029596
0.027955
0.028071
0.028534
0.027251
0.026678
0.028461
0.031010
0.032489
0.033779
0.034969
0.037192
0.037565
0.037063
0.035521
0.034082
0.033963
0.033236
0.031297
0.027898
0.026447
0.026404
0.026797
0.027970
0.029218
0.031759
0.034885
0.037283
0.040876
0.043911
0.046916
0.048933
0.047795
0.044928
0.041044
0.035545
0.032016
0.029306
0.026274
0.024318
0.025341
0.025918
0.029102
0.032428
0.036070
0.040807
0.044539
0.045796
0.046605
0.047755
0.048371
0.047413
0.045768
0.044053
0.040788
0.038687
0.037652
0.035669
0.033619
0.032634
0.032965
0.034337
0.036566
0.038164
0.038353
0.040194
0.041320
0.042871
0.043622
0.043495
0.042499
0.040381
0.038893
0.035941
0.034062
0.033247
0.033049
0.031025
0.028412
0.027479
0.027600
0.029809
0.030516
0.029214
0.027576
0.026564
0.028087
0.028724
0.029007
0.028068
0.028096
0.029082
0.029448
0.027111
0.025669
0.026156
0.029163
0.030399
0.031710
0.032485
0.032469
0.032889
0.033653
0.033973
0.033681
0.032086
0.031117
0.028241
0.025307
0.025276
0.026028
0.026164
0.025775
0.026958
0.026997
0.027122
0.027944
0.028582
0.029650
0.030010
0.029758
0.029595
0.030391
0.030571
0.032315
0.033345
0.033669
0.033119
0.033967
0.037158
0.037444
0.037901
0.038093
0.039762
0.040632
0.039838
0.038965
0.037666
0.036554
0.034930
0.034977
0.033543
0.032211
0.030891
0.029934
0.030379
0.031167
0.032122
0.034199
0.038520
0.040620
0.041307
0.040942
0.041451
0.040824
0.039593
0.037504
0.034130
0.031137
0.027913
0.025157
0.023037
0.021461
0.020249
0.020181
0.020723
0.021955
0.024047
0.026117
0.028951
0.029928
0.029676
0.027686
0.026586
0.023929
0.022867
0.021205
0.018080
0.015857
0.013830
0.012693
0.014703
0.016692
0.016311
0.016369
0.018690
0.021945
0.025343
0.027575
0.029262
0.029452
0.028160
0.027404
0.027090
0.027476
0.027162
0.025719
0.025335
0.024520
0.024670
0.025167
0.025921
0.027711
0.029484
0.032894
0.034963
0.038318
0.040421
0.043286
0.044904
0.043720
0.041764
0.040088
0.038952
0.038262
0.037580
0.034901
0.030421
0.029293
0.029048
0.029763
0.030645
0.033520
0.033929
0.034073
0.035434
0.037218
0.037590
0.037610
0.036499
0.037052
0.036904
0.034667
0.033498
0.033298
0.032316
0.032737
0.034721
0.039123
0.042959
0.044406
0.045490
0.044561
0.044512
0.044377
0.042414
0.041429
0.040540
0.038964
0.036097
0.033433
0.030970
0.027922
0.027081
0.028686
0.031494
0.035232
0.038671
0.042860
0.046746
0.049809
0.050056
0.050214
0.048803
0.047580
0.046456
0.045691
0.042061
0.038119
0.036045
0.037474
0.038279
0.039163
0.039951
0.041602
0.043063
0.044160
0.043767
0.046338
0.047403
0.046803
0.046210
0.046231
0.043205
0.042212
0.039139
0.037055
0.036645
0.036762
0.036877
0.039430
0.043262
0.045664
0.047694
0.051009
0.052637
0.053552
0.053501
0.051447
0.049240
0.045575
0.041946
0.038267
0.036626
0.035263
0.035481
0.035174
0.037134
0.040815
0.044896
0.046933
0.049733
0.052506
0.054032
0.053628
0.051834
0.049536
0.047000
0.043357
0.039663
0.036616
0.033947
0.034178
0.034058
0.035593
0.037114
0.038445
0.039153
0.040986
0.042627
0.044339
0.045685
0.047279
0.046854
0.046260
0.045933
0.043259
0.040175
0.036339
0.033412
0.032255
0.031632
0.032582
0.033697
0.036194
0.038579
0.040766
0.043541
0.042109
0.040952
0.040591
0.041452
0.041260
0.040547
0.039232
0.035928
0.032308
0.029420
0.028129
0.027286
0.027583
0.030053
0.031716
0.034668
0.037590
0.040745
0.042998
0.043922
0.042225
0.042199
0.043132
0.043010
0.041322
0.039216
0.035041
0.032562
0.028627
0.025080
0.024180
0.025030
0.026133
0.026267
0.027445
0.030265
0.032622
0.033127
0.033192
0.031080
0.030991
0.029945
0.027168
0.025290
0.022559
0.020988
0.018387
0.019034
0.018630
0.018752
0.019134
0.021166
0.022481
0.024045
0.024984
0.024956
0.025189
0.024723
0.022608
0.023125
0.020939
0.019297
0.015494
0.012600
0.007993
0.006654
0.006372
0.007313
0.009811
0.010630
0.011267
0.013552
0.017033
0.018389
0.018427
0.018028
0.014412
0.009439
0.006344
0.002322
-0.000267
-0.002220
-0.003023
-0.002598
-0.001046
0.002319
0.006521
0.012249
0.016265
0.019457
0.023837
0.027129
0.029256
0.030665
0.032844
0.031257
0.027161
0.022758
0.019008
0.014425
0.010757
0.010348
0.010030
0.011631
0.014870
0.017554
0.020124
0.021798
0.024153
0.027789
0.030345
0.033484
0.033720
0.034127
0.032005
0.030427
0.029299
0.026877
0.024305
0.023326
0.021573
0.021317
0.021848
0.023679
0.025405
0.026852
0.025238
0.027471
0.029246
0.029263
0.028321
0.027650
0.024026
0.021395
0.017484
0.013961
0.014739
0.016728
0.018958
0.019686
0.020755
0.025470
0.028049
0.029383
0.028702
0.026808
0.024846
0.023774
0.022104
0.018621
0.016219
0.014449
0.013742
0.012955
0.013046
0.014442
0.015564
0.017632
0.019679
0.020922
0.021282
0.021639
0.020860
0.018958
0.015507
0.012177
0.009055
0.007096
0.007506
0.007129
0.008062
0.009334
0.011725
0.016879
0.020414
0.020518
0.021492
0.024284
0.024349
0.023196
0.025362
0.023937
0.020697
0.016793
0.015802
0.015081
0.014977
0.013133
0.011656
0.010802
0.011089
0.011983
0.013651
0.016521
0.019276
0.020959
0.021319
0.022807
0.023758
0.024004
0.023985
0.023705
0.020904
0.018304
0.015295
0.013535
0.012662
0.012147
0.011289
0.010787
0.012032
0.012394
0.014145
0.015966
0.016375
0.016781
0.015964
0.014980
0.014355
0.013823
0.012164
0.009303
0.009082
0.011737
0.010796
0.010386
0.012070
0.013999
0.013557
0.015123
0.015628
0.015344
0.015934
0.015996
0.015448
0.015688
0.013924
0.012787
0.010268
0.008383
0.006344
0.005978
0.006923
0.006377
0.007753
0.009463
0.011679
0.013698
0.017091
0.018795
0.020396
0.023199
0.024146
0.024300
0.023669
0.024176
0.024678
0.024914
0.023580
0.022434
0.021647
0.021130
0.024361
0.027995
0.030636
0.032119
0.032280
0.032180
0.029555
0.027130
0.027429
0.027986
0.028014
0.028565
0.029459
0.030692
0.031565
0.032255
0.033199
0.034133
0.034536
0.037112
0.039140
0.039841
0.040100
0.041576
0.041295
0.038928
0.036062
0.033485
0.030935
0.029367
0.028424
0.027143
0.024916
0.022799
0.022793
0.025224
0.030591
0.035992
0.039424
0.042821
0.047665
0.049414
0.050361
0.050429
0.049973
0.049000
0.047252
0.043520
0.040086
0.035815
0.032980
0.033046
0.034679
0.036905
0.038238
0.039819
0.040775
0.040503
0.041016
0.041960
0.042459
0.040168
0.037812
0.036872
0.034201
0.031120
0.028941
0.028612
0.028548
0.027875
0.027121
0.027594
0.030500
0.033028
0.034922
0.035840
0.038664
0.041459
0.041615
0.041595
0.041750
0.040684
0.039542
0.037889
0.038864
0.038436
0.037926
0.037856
0.038918
0.039883
0.041709
0.042907
0.044703
0.046568
0.047805
0.046592
0.044346
0.042384
0.039831
0.037043
0.035241
0.033543
0.033691
0.033053
0.034338
0.033955
0.035405
0.036840
0.037738
0.040108
0.042541
0.043295
0.041605
0.040540
0.040096
0.040179
0.041044
0.042684
0.043002
0.043230
0.042497
0.042643
0.045225
0.048478
0.051698
0.052884
0.053797
0.053830
0.052557
0.051297
0.047872
0.045178
0.044079
0.043425
0.042691
0.041877
0.040809
0.041233
0.039998
0.038253
0.039660
0.040617
0.041391
0.043376
0.044645
0.045640
0.045754
0.045084
0.045030
0.042712
0.038851
0.036247
0.033494
0.030682
0.027463
0.024711
0.023815
0.022579
0.021530
0.024409
0.025692
0.026702
0.028311
0.028771
0.029837
0.033330
0.034873
0.032047
0.026725
0.020759
0.015200
0.012919
0.009615
0.005822
0.004069
0.004858
0.005552
0.009026
0.010984
0.013620
0.017013
0.020982
0.024389
0.025586
0.026335
0.025336
0.023127
0.021202
0.018077
0.015418
0.012873
0.011572
0.009240
0.008672
0.009850
0.011801
0.015212
0.020157
0.025574
0.030851
0.034508
0.035168
0.036606
0.037768
0.035262
0.031997
0.029722
0.027383
0.026460
0.023196
0.019876
0.017113
0.013506
0.015769
0.018095
0.021270
0.024065
0.026396
0.030707
0.033582
0.034774
0.034997
0.032692
0.030323
0.029110
0.026777
0.025947
0.023123
0.023374
0.023971
0.025520
0.028098
0.029345
0.030666
0.031365
0.032579
0.033084
0.031669
0.030268
0.029926
0.028891
0.027605
0.026854
0.025066
0.023644
0.023803
0.024570
0.025329
0.028693
0.031501
0.033236
0.034344
0.035268
0.033047
0.032504
0.030572
0.028573
0.026158
0.023419
0.020881
0.017847
0.015277
0.013778
0.015777
0.017582
0.019978
0.021740
0.024792
0.026855
0.028636
0.027962
0.027643
0.028720
0.027958
0.025636
0.022989
0.020020
0.019519
0.019893
0.018261
0.018126
0.020342
0.020534
0.023075
0.024459
0.026700
0.030137
0.034846
0.040814
0.044981
0.048236
0.049718
0.050401
0.049423
0.044189
0.038833
0.031440
0.026820
0.022159
0.019634
0.018440
0.019522
0.022682
0.027465
0.031243
0.034461
0.039388
0.044440
0.047787
0.047097
0.045107
0.041396
0.037287
0.032870
0.026929
0.021832
0.018875
0.017863
0.016512
0.016568
0.017320
0.019370
0.023316
0.028179
0.032385
0.038204
0.043268
0.046453
0.047691
0.046827
0.045885
0.042427
0.038220
0.034839
0.030533
0.026793
0.025092
0.025411
0.025640
0.026214
0.026696
0.027260
0.029212
0.032276
0.035135
0.036486
0.037388
0.036539
0.035525
0.032519
0.029194
0.029298
0.028530
0.027422
0.026150
0.026023
0.024069
0.025182
0.025587
0.026423
0.026816
0.025028
0.026218
0.029138
0.030374
0.029247
0.028132
0.028507
0.027835
0.029171
0.029623
0.028852
0.028002
0.027247
0.026935
0.025668
0.027200
0.026715
0.026234
0.025845
0.025547
0.026296
0.026864
0.028036
0.030589
0.033204
0.035010
0.037406
0.038038
0.038750
0.039108
0.039461
0.038418
0.036689
0.036718
0.036573
0.034775
0.033517
0.033404
0.033205
0.031963
0.033606
0.035669
0.035882
0.037400
0.038989
0.041347
0.043332
0.044775
0.048642
0.050642
0.051490
0.051111
0.049952
0.047760
0.046460
0.045783
0.043980
0.044547
0.046239
0.046347
0.046368
0.046562
0.047189
0.048594
0.051378
0.054222
0.057472
0.060777
0.062570
0.061732
0.059510
0.057484
0.055565
0.054275
0.051778
0.048262
0.046696
0.048105
0.046889
0.048036
0.050129
0.050460
0.051310
0.053545
0.055670
0.058035
0.059419
0.061486
0.060572
0.058361
0.055911
0.051657
0.047620
0.043796
0.042014
0.039465
0.039119
0.039820
0.041211
0.043633
0.046815
0.051619
0.055070
0.059879
0.063421
0.065448
0.064756
0.062417
0.060971
0.056667
0.052318
0.048448
0.045487
0.042730
0.040697
0.040599
0.041895
0.043875
0.047664
0.052895
0.055984
0.059740
0.063196
0.066096
0.066617
0.064955
0.061482
0.058217
0.054549
0.053356
0.052175
0.050918
0.049587
0.047921
0.046706
0.047768
0.051344
0.056712
0.060286
0.064173
0.065844
0.066541
0.067927
0.066949
0.062846
0.060526
0.057271
0.053874
0.050772
0.048310
0.046570
0.046762
0.048432
0.050086
0.052681
0.054466
0.057540
0.058059
0.060139
0.060719
0.060857
0.060646
0.061133
0.061181
0.061663
0.061879
0.060439
0.059796
0.058986
0.058968
0.059733
0.061449
0.063060
0.063959
0.066416
0.067803
0.068394
0.066715
0.065052
0.062448
0.061873
0.060085
0.057095
0.055441
0.055284
0.057740
0.058604
0.059548
0.062048
0.064873
0.066276
0.068536
0.069728
0.070996
0.070684
0.069417
0.068860
0.066653
0.062467
0.059715
0.059079
0.061672
0.064239
0.065213
0.065046
0.068449
0.070688
0.072816
0.075446
0.076570
0.077595
0.079046
0.080395
0.079728
0.078981
0.078764
0.077504
0.075821
0.072675
0.069647
0.067694
0.068111
0.068786
0.070672
0.073933
0.076117
0.078888
0.081197
0.082350
0.083754
0.085056
0.083733
0.081031
0.077049
0.074239
0.070673
0.067405
0.066519
0.066164
0.066161
0.065114
0.065818
0.066777
0.067899
0.070404
0.072884
0.072466
0.072749
0.069721
0.068463
0.065129
0.062612
0.058988
0.054355
0.052206
0.051645
0.051700
0.052973
0.053450
0.054879
0.057688
0.062210
0.066600
0.068769
0.071091
0.071388
0.070375
0.068850
0.067602
0.063580
0.059511
0.056179
0.053576
0.049781
0.047242
0.046644
0.047009
0.048590
0.051200
0.055177
0.059376
0.061617
0.063401
0.062904
0.061888
0.060535
0.057628
0.054924
0.052857
0.051158
0.050086
0.048850
0.049716
0.048135
0.048747
0.048831
0.052135
0.056103
0.061162
0.065737
0.067567
0.069030
0.068999
0.065137
0.061575
0.057264
0.054303
0.051545
0.050469
0.049229
0.048089
0.048179
0.050706
0.051728
0.054481
0.057206
0.059817
0.062402
0.064614
0.064104
0.062380
0.062676
0.063231
0.061690
0.059903
0.058048
0.056297
0.056741
0.057441
0.059005
0.059770
0.060876
0.063886
0.066169
0.065905
0.066602
0.067117
0.068150
0.069259
0.068529
0.067545
0.064307
0.063191
0.062695
0.063075
0.064061
0.065995
0.067212
0.067896
0.070662
0.072878
0.073070
0.072563
0.071451
0.071570
0.072297
0.070840
0.070791
0.069871
0.068787
0.067626
0.066826
0.066903
0.067067
0.066881
0.068264
0.069373
0.071602
0.071632
0.072010
0.074387
0.074999
0.074212
0.073519
0.072050
0.070074
0.067594
0.065226
0.063056
0.060821
0.057998
0.058338
0.059980
0.063521
0.066331
0.071028
0.075417
0.078108
0.081643
0.083489
0.084707
0.084955
0.082849
0.080417
0.078269
0.074751
0.071528
0.068947
0.068046
0.067937
0.067220
0.068426
0.071187
0.073572
0.074976
0.076191
0.077656
0.077103
0.075947
0.076021
0.074527
0.072264
0.067848
0.062256
0.058722
0.055398
0.052455
0.050674
0.052044
0.055316
0.059513
0.062362
0.064574
0.065632
0.066331
0.066152
0.065801
0.065802
0.063452
0.061300
0.059865
0.058532
0.055384
0.054356
0.052991
0.052074
0.055259
0.058499
0.061533
0.063579
0.065517
0.067175
0.067684
0.068798
0.069553
0.068210
0.066359
0.063307
0.059589
0.057562
0.056252
0.055216
0.054016
0.053873
0.055734
0.058099
0.060788
0.064495
0.067382
0.068238
0.067866
0.068456
0.067038
0.065111
0.062332
0.060452
0.056501
0.051284
0.046989
0.045435
0.045029
0.044889
0.046752
0.049206
0.051200
0.053262
0.056696
0.059225
0.059204
0.058226
0.056387
0.055001
0.052062
0.048891
0.046100
0.043424
0.042341
0.041879
0.041421
0.042449
0.042769
0.042215
0.043495
0.045372
0.048537
0.051496
0.053641
0.052544
0.051284
0.050210
0.046710
0.043592
0.040331
0.036494
0.033303
0.032844
0.033434
0.034714
0.037637
0.040617
0.042261
0.044498
0.046104
0.046562
0.047712
0.048764
0.048237
0.045714
0.041823
0.038405
0.037721
0.035825
0.033077
0.032881
0.033296
0.034143
0.036113
0.038586
0.040860
0.042415
0.045086
0.047818
0.047736
0.048613
0.048350
0.047915
0.046875
0.044887
0.042746
0.040886
0.037391
0.036804
0.036397
0.036168
0.035941
0.037545
0.038175
0.040105
0.044105
0.048066
0.049636
0.048753
0.048314
0.048402
0.045354
0.042859
0.039954
0.037600
0.037882
0.038857
0.040257
0.040948
0.041718
0.041872
0.042981
0.044428
0.046470
0.046837
0.046417
0.044434
0.041687
0.040274
0.039745
0.037306
0.036633
0.037359
0.037817
0.038358
0.039764
0.040546
0.040885
0.040437
0.043564
0.045876
0.044769
0.044369
0.044322
0.042360
0.041723
0.039961
0.038304
0.037969
0.037724
0.036611
0.036380
0.036413
0.037490
0.039514
0.041953
0.044716
0.047625
0.047720
0.046421
0.044438
0.042649
0.040094
0.037825
0.035928
0.034050
0.033322
0.032427
0.031367
0.030840
0.032494
0.033349
0.032454
0.032961
0.033811
0.034565
0.034267
0.034843
0.033585
0.031468
0.029373
0.027821
0.027503
0.026927
0.026444
0.024660
0.024112
0.024789
0.024937
0.028044
0.029029
0.030963
0.033835
0.035547
0.037329
0.039093
0.039186
0.039104
0.037977
0.037036
0.035233
0.034058
0.033069
0.032960
0.033462
0.035961
0.037129
0.037154
0.039094
0.039187
0.038147
0.039729
0.040424
0.040242
0.039017
0.037543
0.035997
0.034640
0.030685
0.029729
0.031743
0.032170
0.030938
0.030763
0.031635
0.032585
0.034658
0.037842
0.039253
0.039866
0.040473
0.039943
0.038024
0.034122
0.031217
0.029211
0.027573
0.024733
0.024272
0.025383
0.027875
0.029733
0.032444
0.035475
0.037519
0.038846
0.039376
0.039901
0.038506
0.036079
0.032806
0.031568
0.030604
0.028256
0.027847
0.030053
0.032064
0.033097
0.034468
0.035129
0.038656
0.042149
0.045171
0.047728
0.047996
0.049305
0.049035
0.047549
0.048166
0.050258
0.051371
0.049513
0.047499
0.047421
0.047779
0.046740
0.045189
0.044263
0.043782
0.046788
0.051592
0.054608
0.057680
0.060809
0.061208
0.061777
0.060512
0.055516
0.050743
0.046105
0.041252
0.038711
0.036544
0.036748
0.038257
0.039925
0.039139
0.038708
0.041765
0.043485
0.046059
0.049651
0.053295
0.054640
0.053881
0.051824
0.047698
0.043438
0.039221
0.034872
0.031089
0.029519
0.027879
0.030433
0.033834
0.037548
0.042793
0.047114
0.052090
0.054665
0.055212
0.053577
0.048911
0.042376
0.036254
0.030541
0.025930
0.022584
0.019097
0.017473
0.017258
0.017568
0.018745
0.021478
0.023661
0.023559
0.025112
0.028739
0.031459
0.032063
0.031877
0.031519
0.029597
0.027607
0.025376
0.024125
0.024802
0.023992
0.025453
0.029599
0.032920
0.035251
0.039212
0.038955
0.038092
0.035408
0.032664
0.030557
0.029254
0.027268
0.025650
0.024570
0.022369
0.020103
0.017860
0.015465
0.016227
0.020117
0.022836
0.025006
0.028547
0.031182
0.033878
0.034719
0.034768
0.034642
0.033560
0.032576
0.031079
0.027942
0.024489
0.021767
0.021509
0.023431
0.024985
0.027830
0.031604
0.035428
0.039039
0.042006
0.044681
0.045937
0.046832
0.047108
0.046511
0.044789
0.042213
0.039314
0.035573
0.030129
0.026218
0.023827
0.022940
0.024847
0.026648
0.027996
0.032291
0.036804
0.041621
0.044301
0.048433
0.051654
0.053537
0.052528
0.051181
0.049760
0.046612
0.043582
0.037274
0.031987
0.030496
0.029020
0.028777
0.029669
0.030116
0.029514
0.030312
0.033974
0.036207
0.036589
0.036184
0.036480
0.036424
0.035934
0.033707
0.032025
0.029837
0.027583
0.025004
0.024105
0.023389
0.023463
0.022841
0.023095
0.023434
0.024553
0.023919
0.022769
0.022676
0.021103
0.019721
0.019483
0.019161
0.019713
0.019476
0.018110
0.016757
0.017594
0.017552
0.015769
0.014701
0.016081
0.018056
0.020447
0.021683
0.021601
0.017601
0.012770
0.008859
0.005073
0.002544
-0.000134
-0.000348
0.001530
0.003041
0.004102
0.005674
0.008276
0.010590
0.013143
0.013668
0.014796
0.016959
0.020493
0.021815
0.020338
0.019834
0.019683
0.018662
0.017043
0.013350
0.010128
0.006852
0.004654
0.003870
0.003791
0.007020
0.011350
0.014766
0.015013
0.018306
0.021826
0.025051
0.030507
0.033471
0.034316
0.034107
0.029809
0.024509
0.017085
0.008690
0.001336
-0.002549
-0.005786
-0.007946
-0.008953
-0.008121
-0.005731
-0.000665
0.002784
0.007852
0.011563
0.015412
0.019136
0.021430
0.022481
0.023697
0.025771
0.025909
0.025784
0.023310
0.018510
0.012016
0.005413
-0.001647
-0.008202
-0.012514
-0.012605
-0.012607
-0.010956
-0.004358
0.002697
0.009681
0.016858
0.022743
0.029354
0.033462
0.034829
0.033832
0.030581
0.026405
0.019746
0.009757
-0.002483
-0.011293
-0.018448
-0.023529
-0.025948
-0.023293
-0.019010
-0.012854
-0.004757
0.003085
0.012591
0.019999
0.024548
0.027136
0.026389
0.023126
0.019111
0.012002
0.004354
-0.003828
-0.012102
-0.018291
-0.022329
-0.024760
-0.025164
-0.021994
-0.014503
-0.007260
0.000607
0.007874
0.016287
0.023223
0.029045
0.030370
0.030984
0.027675
0.024572
0.019672
0.012296
0.004036
-0.002662
-0.009641
-0.012111
-0.013512
-0.011503
-0.009340
-0.005109
0.002040
0.007812
0.014224
0.020397
0.025028
0.027611
0.028167
0.023492
0.020170
0.016533
0.012323
0.008328
0.004287
0.000024
-0.001672
-0.000912
-0.000073
0.001279
0.004882
0.009059
0.013194
0.017462
0.020295
0.021358
0.021453
0.021373
0.019552
0.016443
0.011276
0.007205
0.003348
0.000227
-0.004866
-0.005381
-0.006588
-0.004735
-0.001681
0.001081
0.004338
0.006778
0.009630
0.010451
0.008390
0.005828
0.003117
0.000346
-0.003616
-0.006668
-0.008906
-0.010861
-0.011055
-0.009680
-0.008058
-0.005059
-0.001654
0.002501
0.006005
0.009909
0.011946
0.014572
0.014648
0.013939
0.014020
0.011315
0.008723
0.004417
0.000762
-0.001028
-0.002016
-0.003256
-0.000827
0.002884
0.005340
0.008467
0.011824
0.014016
0.016013
0.015377
0.014835
0.013515
0.014123
0.010807
0.008221
0.008185
0.006147
0.003520
0.003183
0.003633
0.005645
0.009031
0.008900
0.011121
0.014539
0.018271
0.019616
0.019815
0.018967
0.017954
0.015645
0.012314
0.008929
0.007929
0.007025
0.005173
0.004907
0.006384
0.008805
0.011201
0.010700
0.011946
0.015791
0.018640
0.021287
0.023472
0.025374
0.024994
0.023224
0.020688
0.019397
0.016899
0.014426
0.013284
0.012414
0.012162
0.012958
0.013920
0.014960
0.014509
0.013801
0.014842
0.014827
0.014291
0.014020
0.013579
0.011662
0.010547
0.009269
0.007917
0.009103
0.011845
0.015604
0.019413
0.023445
0.027176
0.030782
0.031741
0.031819
0.033203
0.032309
0.028987
0.027700
0.026687
0.024291
0.021048
0.019491
0.018473
0.018596
0.018980
0.017967
0.016876
0.019541
0.020959
0.021929
0.023498
0.025313
0.024672
0.024908
0.024358
0.023552
0.020317
0.018245
0.015237
0.012606
0.010263
0.008205
0.008430
0.009612
0.009736
0.012907
0.017091
0.020711
0.024991
0.026443
0.028141
0.028778
0.029408
0.027943
0.027537
0.026787
0.025173
0.021399
0.019317
0.017865
0.017385
0.019000
0.021294
0.023741
0.027120
0.030901
0.034906
0.038610
0.040100
0.041228
0.040341
0.039289
0.038596
0.038171
0.037315
0.032549
0.031488
0.030002
0.028531
0.028902
0.030228
0.030147
0.031635
0.034239
0.037166
0.037626
0.038255
0.039140
0.040102
0.040968
0.039127
0.037913
0.036798
0.037697
0.038587
0.040426
0.041811
0.042399
0.040804
0.040792
0.040781
0.038941
0.038948
0.039129
0.037828
0.036105
0.033354
0.031762
0.031144
0.031403
0.030788
0.032008
0.032345
0.033810
0.035958
0.038345
0.040099
0.041400
0.042515
0.042922
0.042889
0.043901
0.045252
0.044586
0.042012
0.038941
0.037381
0.035227
0.033268
0.032113
0.033232
0.034515
0.034914
0.035745
0.037090
0.039030
0.039820
0.040427
0.039201
0.036854
0.032964
0.030941
0.029721
0.028514
0.026273
0.026842
0.027927
0.029175
0.031194
0.032149
0.032485
0.031424
0.032551
0.034101
0.034156
0.032034
0.030630
0.029936
0.027333
0.025017
0.024118
0.022009
0.022010
0.022534
0.021398
0.021928
0.021755
0.021846
0.023329
0.024710
0.026078
0.024820
0.026360
0.027189
0.026268
0.025617
0.024102
0.021471
0.018691
0.016375
0.017216
0.015872
0.012887
0.011063
0.011870
0.012755
0.015548
0.017006
0.019060
0.020658
0.020672
0.019033
0.016974
0.013456
0.009015
0.003834
-0.000250
-0.003335
-0.023978
-0.065745
-0.101525
-0.120754
-0.116285
-0.102632
-0.076229
-0.043472
-0.015219
-0.003442
-0.006061
-0.016576
-0.027771
-0.036677
-0.044798
-0.057453
-0.079385
-0.103798
-0.129273
-0.152406
-0.175744
-0.193103
-0.203063
-0.203173
-0.199625
-0.200727
-0.206433
-0.207293
-0.188642
-0.149977
-0.101163
-0.055011
-0.016109
0.017530
0.033160
0.021297
-0.013347
-0.053740
-0.088943
-0.119093
-0.138758
-0.150565
-0.154767
-0.153616
-0.148471
-0.144249
-0.141897
-0.143051
-0.142887
-0.141158
-0.138140
-0.132105
-0.124737
-0.117094
-0.109179
-0.105261
-0.107214
-0.110716
-0.114269
-0.118223
-0.122747
-0.127922
-0.133917
-0.136891
-0.131913
-0.121848
-0.108836
-0.095083
-0.081989
-0.073726
-0.073121
-0.075830
-0.084693
-0.095645
-0.107707
-0.121129
-0.129542
-0.133256
-0.131013
-0.123656
-0.112803
-0.098139
-0.087452
-0.088016
-0.102679
-0.124770
-0.153172
-0.184338
-0.221201
-0.258046
-0.293653
-0.320897
-0.339250
-0.349584
-0.355724
-0.357449
-0.353498
-0.347845
-0.340942
-0.333673
-0.322471
-0.308768
-0.291894
-0.269354
-0.249040
-0.232064
-0.220915
-0.213534
-0.216326
-0.221179
-0.232166
-0.244785
-0.255102
-0.262007
-0.265275
-0.263372
-0.259487
-0.256510
-0.253128
-0.249606
-0.248643
-0.248213
-0.242127
-0.230443
-0.217743
-0.209697
-0.209741
-0.218665
-0.229764
-0.247892
-0.269409
-0.288622
-0.305468
-0.320579
-0.332405
-0.343591
-0.352316
-0.357209
-0.354828
-0.349771
-0.342413
-0.310316
-0.299520
-0.288310
-0.279562
-0.270465
-0.261982
-0.255411
-0.248644
-0.245254
-0.246337
-0.257334
-0.270225
-0.274020
-0.270377
-0.263113
-0.252962
-0.243520
-0.239310
-0.242542
-0.250269
-0.260444
-0.271040
-0.279616
-0.287497
-0.296257
-0.305539
-0.316034
-0.325816
-0.333759
-0.340753
-0.343933
-0.340378
-0.330676
-0.316718
-0.300461
-0.279577
-0.256898
-0.233139
-0.209443
-0.186156
-0.167715
-0.151286
-0.140506
-0.139149
-0.145728
-0.159120
-0.174555
-0.187835
-0.200111
-0.210001
-0.217008
-0.220723
-0.223530
-0.223088
-0.218994
-0.213809
-0.208152
-0.201769
-0.193446
-0.185555
-0.180528
-0.177293
-0.174786
-0.173001
-0.171233
-0.171399
-0.169560
-0.169481
-0.169142
-0.164626
-0.160243
-0.153031
-0.146412
-0.138205
-0.130341
-0.123600
-0.118929
